tree
version=v3
num_class=10
num_tree_per_iteration=10
label_index=0
max_feature_idx=71
objective=multiclass num_class:10
feature_names=Column_0 Column_1 Column_2 Column_3 Column_4 Column_5 Column_6 Column_7 Column_8 Column_9 Column_10 Column_11 Column_12 Column_13 Column_14 Column_15 Column_16 Column_17 Column_18 Column_19 Column_20 Column_21 Column_22 Column_23 Column_24 Column_25 Column_26 Column_27 Column_28 Column_29 Column_30 Column_31 Column_32 Column_33 Column_34 Column_35 Column_36 Column_37 Column_38 Column_39 Column_40 Column_41 Column_42 Column_43 Column_44 Column_45 Column_46 Column_47 Column_48 Column_49 Column_50 Column_51 Column_52 Column_53 Column_54 Column_55 Column_56 Column_57 Column_58 Column_59 Column_60 Column_61 Column_62 Column_63 Column_64 Column_65 Column_66 Column_67 Column_68 Column_69 Column_70 Column_71
feature_infos=[0:8] [0:16] [0:16] [0:16] [0:16] [0:16] [0:15] none [0:16] [0:16] [0:16] [0:16] [0:16] [0:16] [0:12] none [0:16] [0:16] [0:16] [0:16] [0:16] [0:16] [0:8] none [0:15] [0:16] [0:16] [0:16] [0:16] [0:15] none [0:14] [0:16] [0:16] [0:16] [0:16] [0:14] none [0:16] [0:16] [0:16] [0:16] [0:16] [0:16] [0:6] none [0:16] [0:16] [0:16] [0:16] [0:16] [0:16] [0:10] none [0:9] [0:16] [0:16] [0:16] [0:16] [0:16] [0:16] [0:256] [0:16] [0:256] [0:16] [0:24] [0:16] [0:16] [0:16] [0:16] [0:15] [-0.99980746266459897:0.98981246777155607]
tree_sizes=2085 2680 2394 2282 2190 3012 2477 1789 2790 2671 6825 6788 6810 6782 6794 6781 6785 6785 6767 6722 6825 6788 6812 6767 6793 6796 6789 6796 6766 6787 6888 6760 6833 6808 6818 6814 6847 6814 6765 6797 6856 6823 6812 6796 6826 6826 6799 6856 6789 6765 6857 6833 6834 6819 6833 6817 6820 6822 6803 6819 6886 6851 6856 6805 6837 6838 6842 6867 6802 6823 6877 6831 6864 6842 6854 6841 6870 6887 6814 6838 6904 6856 6870 6884 6884 6866 6879 6896 6838 6860 6920 6877 6890 6899 6876 6882 6897 6900 6889 6860 6946 6887 6895 6898 6902 6903 6911 6933 6892 6901 6997 6923 6951 6904 6941 6943 6928 6940 6892 6900 6988 6963 6960 6935 6948 6937 6961 6975 6952 6932 6988 6958 6973 6944 6975 6949 6991 6970 6939 6929 7011 6959 6992 6969 6985 6967 6988 6990 6955 6947 7032 7001 6991 6974 7008 6993 7026 7027 6967 6951 7062 7011 7029 7022 7024 7009 7060 7026 6968 6961 7106 7050 7044 7041 7049 7017 7043 7056 7027 7023 7087 7060 7088 7048 7065 7070 7059 7092 7024 7031 7127 7054 7082 7052 7050 7080 7084 7110 7042 7067 7124 7058 7113 7100 7106 7076 7097 7104 7065 7064 7141 7113 7128 7091 7106 7112 7112 7132 7086 7087 7156 7114 7140 7105 7150 7126 7153 7136 7111 7108 7172 7118 7155 7154 7178 7135 7157 7139 7144 7131 5968 7149 6729 7155 7139 7046 6819 6496 7144 7125 4369 6035 5589 6151 6374 6137 5604 6177 7046 6915 4150 5142 4826 6282 4714 5264 4705 4486 6599 6362 3258 4250 3691 5034 4042 4374 4027 3593 5376 5141 2590 3587 3026 3799 3821 3821 3256 3367 4817 4927 2026 3131 2702 3379 3039 2802 2367 2597 3806 4024 1582 2806 2372 2804 2473 2470 1921 2030 3040 3471 1132 2375 1691 2270 1908 1903 1582 1575 2706 2594 1021 1795 1468 1813 1692 1799 1245 1354 2365 2251 807 1586 1139 1467 1364 1244 1026 1027 1805 1909 691 1238 1030 1132 1025 1132 801 797 1474 1812 577 1033 809 914 919 911 690 695 1253 1365 470 914 690 927 804 805 581 693 1135 1137 469 915 580 807 694 695 580 582 1030 1028 356 691 580 688 579 586 470 470 805 804 357 698 473 693 578 582 469 470 919 803 361 700 468 582 471 584 470 469 806 809 358 587 470 582 469 470 480 357 695 694 357 579 472 469 468 473 357 357 698 698 223 470 356 584 472 362 357 358 584 699 223 476 474 471 356 470 358 357 697 701

Tree=0
num_leaves=19
num_cat=0
split_feature=33 31 41 33 25 36 21 35 32 32 33 12 18 25 25 8 17 8
split_gain=201.294 386.822 86.173 18.889 73.5727 56.9039 4.78151 3.73758 2.20036 1.66924 6.30504 12.987 0.884226 1.13687e-13 5.68434e-14 7.10543e-15 3.55271e-15 1.77636e-15
threshold=1.0000000180025095e-35 2.5000000000000004 10.500000000000002 5.5000000000000009 15.500000000000002 1.5000000000000002 1.5000000000000002 6.5000000000000009 13.500000000000002 15.500000000000002 11.500000000000002 4.5000000000000009 11.500000000000002 14.500000000000002 12.500000000000002 8.5000000000000018 3.5000000000000004 9.5000000000000018
decision_type=2 2 2 2 2 2 2 2 2 2 2 2 2 2 2 2 2 2
left_child=1 7 12 4 8 -6 -7 -1 17 15 11 -11 13 14 -3 -5 -12 -2
right_child=3 2 -4 9 5 6 -8 -9 -10 10 16 -13 -14 -15 -16 -17 -18 -19
leaf_value=-2.1124418709995716 -2.5181454303512685 -0.48962763359277983 -2.3491022806213944 -2.5181454303512685 -2.5181454303512685 -1.0981829726203283 -0.48962763359278161 -2.5181454303512685 -2.2645807057564573 -2.518145430351268 -2.5181454303512685 -1.8021979726718023 -0.69247941326863049 -0.48962763359278161 -0.48962763359278139 -2.5181454303512685 -2.5181454303512685 -2.518145430351268
leaf_weight=0.98594158887863415 9.3664450943469966 3.8451721966266614 1.1831299066543577 49.00129696726799 1.1831299066543572 0.98594158887863192 1.0845357477664945 11.535516589879988 1.5775065422058094 2.5634481310844448 2.2676656544208518 1.6761007010936735 0.98594158887863148 1.2817240655422208 1.5775065422058103 4.1409546732902518 9.9580100476741773 0.98594158887863237
leaf_count=10 95 39 12 497 12 10 11 117 16 26 23 17 10 13 16 42 101 10
internal_value=-2.3185 -1.7703 -0.760097 -2.45682 -2.2547 -1.41168 -0.779416 -2.4862 -2.48462 -2.50091 -2.44526 -2.2351 -0.515634 -0.489628 -0.489628 -2.51815 -2.51815 -2.51815
internal_weight=0 21.3949 8.87347 84.791 15.1835 3.25361 2.07048 12.5215 11.9299 69.6075 16.4652 4.23955 7.69034 6.7044 5.42268 53.1423 12.2257 10.3524
internal_count=1077 217 90 860 154 33 21 127 121 706 167 43 78 68 55 539 124 105
is_linear=0
shrinkage=1


Tree=1
num_leaves=25
num_cat=0
split_feature=61 41 60 12 2 12 40 33 35 34 2 2 69 41 60 63 17 2 40 47 2 2 2 2
split_gain=193.471 151.347 72.7272 30.3849 25.8502 31.6608 29.3906 70.1541 58.7361 15.2215 14.4084 6.29366 5.52591 5.03243 3.65429 11.7713 2.04795 0.509782 0.176528 0.799131 5.68434e-14 8.88178e-16 4.44089e-16 4.44089e-16
threshold=248.00000000000003 14.500000000000002 8.5000000000000018 6.5000000000000009 1.0000000180025095e-35 15.500000000000002 15.500000000000002 15.500000000000002 3.5000000000000004 9.5000000000000018 11.500000000000002 1.5000000000000002 2.4500000000000006 11.500000000000002 1.0000000180025095e-35 58.000000000000007 15.500000000000002 3.5000000000000004 14.500000000000002 3.5000000000000004 1.5000000000000002 12.500000000000002 15.500000000000002 15.500000000000002
decision_type=2 2 2 2 2 2 2 2 2 2 2 2 2 2 2 2 2 2 2 2 2 2 2 2
left_child=2 13 4 10 5 -1 11 16 9 -9 -3 -6 20 22 17 -16 -8 -13 -19 -20 -5 -21 -2 -17
right_child=1 3 -4 12 6 -7 7 8 -10 -11 -12 14 -14 -15 15 23 -18 18 19 21 -22 -23 -24 -25
leaf_value=-2.4908553868021266 -2.4908553868021266 -2.0950952550626627 -1.0940549218393121 -0.51205472810480734 -2.0342090809488989 -0.90781485984427168 -2.4908553868021266 -1.5014550574534669 -2.4908553868021266 -0.51205472810480712 -1.051727635022258 -2.3809220168744978 -1.0067548927791372 -2.0342090809488989 -1.6993351233231988 -2.4908553868021266 -2.2435053044649615 -2.4908553868021266 -2.2929753209323946 -2.4908553868021266 -0.51205472810480712 -2.4908553868021266 -2.4908553868021266 -2.4908553868021266
leaf_weight=1.0107132047414771 2.6278543323278409 1.0107132047414782 1.7182124480605114 1.617141127586365 1.3139271661639202 1.010713204741478 7.7824916765093786 1.0107132047414773 1.4149984866380689 1.6171411275863645 1.1117845252156255 1.8192837685346592 1.2128558456897733 1.3139271661639211 1.0107132047414773 1.6171411275863647 1.6171411275863645 67.515642076730728 1.0107132047414769 1.9203550890088079 1.9203550890088079 2.3246403709053993 1.0107132047414782 1.3139271661639214
leaf_count=10 26 10 17 16 13 10 77 10 14 16 11 18 12 13 10 16 16 668 10 19 19 23 10 13
internal_value=-2.29059 -1.52682 -2.38367 -0.919455 -2.40692 -1.69934 -2.42225 -2.14866 -1.45199 -0.892593 -1.54857 -2.46831 -0.638361 -2.3697 -2.47558 -2.2879 -2.4483 -2.48549 -2.48811 -2.4528 -0.512055 -2.49086 -2.49086 -2.49086
internal_weight=0 11.8253 97.0285 6.87285 95.3103 2.02143 93.2888 13.4425 4.04285 2.62785 2.1225 79.8463 4.75035 4.95249 78.5324 3.94178 9.39963 74.5906 72.7714 5.25571 3.5375 4.245 3.63857 2.93107
internal_count=1077 117 960 68 943 20 923 133 40 26 21 790 47 49 777 39 93 738 720 52 35 42 36 29
is_linear=0
shrinkage=1


Tree=2
num_leaves=22
num_cat=0
split_feature=59 43 18 41 32 40 2 50 41 18 11 64 39 64 46 71 17 3 4 3 2
split_gain=172.915 252.901 122.819 54.7165 15.0649 76.2322 62.4153 14.2577 9.67131 9.0614 7.68077 3.52823 0.943343 0.92535 0.370363 0.618964 1.13687e-13 1.42109e-14 3.55271e-15 1.77636e-15 4.44089e-16
threshold=2.5000000000000004 1.0000000180025095e-35 8.5000000000000018 7.5000000000000009 1.5000000000000002 12.500000000000002 14.500000000000002 15.500000000000002 11.500000000000002 12.500000000000002 9.5000000000000018 6.7500000000000009 6.5000000000000009 0.96875000000000011 4.5000000000000009 -0.2585756981750667 12.500000000000002 9.5000000000000018 12.500000000000002 15.500000000000002 13.500000000000002
decision_type=2 2 2 2 2 2 2 2 2 2 2 2 2 2 2 2 2 2 2 2 2
left_child=4 2 10 -4 5 12 8 13 -7 -5 -2 14 18 19 17 -16 -12 -6 -1 -3 -20
right_child=1 7 3 9 11 6 -8 -9 -10 -11 16 -13 -14 -15 15 -17 -18 -19 20 -21 -22
leaf_value=-2.5089615249562525 -1.1008195105465142 -2.5089615249562529 -0.68020566208645938 -1.8384177085706619 -2.5089615249562525 -1.7352571214344166 -0.49733007579947963 -1.8384177085706619 -2.5089615249562525 -2.5089615249562525 -0.49733007579947897 -2.1432103523822938 -2.3077983800405755 -2.3077983800405755 -2.307798380040575 -2.5089615249562525 -0.4973300757994803 -2.5089615249562525 -2.5089615249562525 -2.5089615249562525 -2.5089615249562525
leaf_weight=11.632349632680418 0.99421791732311415 9.8427573814988065 1.0936397090554235 1.1930615007877352 12.030036799609659 1.2924832925200456 1.4913268759846685 1.4913268759846694 1.292483292520046 2.4855447933077812 4.4739806279540062 1.0936397090554226 0.99421791732311326 0.99421791732311326 0.99421791732311282 1.5907486677169789 1.0936397090554235 46.032289572060108 2.1872794181108488 1.5907486677169806 1.1930615007877348
leaf_count=117 10 99 11 12 121 13 15 15 13 25 45 11 10 10 10 16 11 463 22 16 12
internal_value=-2.30911 -1.85162 -1.15023 -1.92224 -2.4503 -2.29983 -1.52768 -2.42275 -2.12211 -2.29149 -0.588768 -2.49924 -2.49647 -2.49287 -2.50566 -2.43159 -0.49733 -2.50896 -2.50896 -2.50896 -2.50896
internal_weight=0 25.2531 11.3341 4.77225 81.8241 20.0832 4.07629 13.9191 2.58497 3.67861 6.56184 61.7409 16.0069 12.4277 60.6473 2.58497 5.56762 58.0623 15.0127 11.4335 3.38034
internal_count=1077 254 114 48 823 202 41 140 26 37 66 621 161 125 610 26 56 584 151 115 34
is_linear=0
shrinkage=1


Tree=3
num_leaves=21
num_cat=0
split_feature=32 40 28 17 49 20 17 43 28 20 27 28 17 39 34 13 3 1 32 1
split_gain=172.125 155.222 189.196 79.1853 35.1495 29.0224 15.664 62.0317 7.6834 15.6591 3.31928 1.90813 0.835714 4.87633 0.802455 0.453815 0.518257 5.68434e-14 7.10543e-15 8.88178e-16
threshold=1.0000000180025095e-35 4.5000000000000009 9.5000000000000018 4.5000000000000009 11.500000000000002 7.5000000000000009 3.5000000000000004 5.5000000000000009 6.5000000000000009 7.5000000000000009 13.500000000000002 12.500000000000002 7.5000000000000009 1.0000000180025095e-35 9.5000000000000018 11.500000000000002 11.500000000000002 10.500000000000002 3.5000000000000004 2.5000000000000004
decision_type=2 2 2 2 2 2 2 2 2 2 2 2 2 2 2 2 2 2 2 2
left_child=1 2 4 -4 10 -6 7 8 9 -2 -1 -5 13 -8 -3 18 -17 -12 -14 -15
right_child=6 14 3 11 5 -7 12 -9 -10 -11 17 -13 15 19 -16 16 -18 -19 -20 -21
leaf_value=-0.90781485984427879 -2.4908553868021266 -2.3109644178296431 -0.88307985161055291 -2.2435053044649615 -2.2929753209323946 -0.84185483788769377 -2.0950952550626623 -1.0397349037574251 -2.4908553868021266 -1.7213217973087245 -0.51205472810480623 -2.4908553868021266 -2.4908553868021266 -2.4908553868021266 -2.4908553868021266 -2.4908553868021266 -2.2929753209323946 -0.51205472810480779 -2.4908553868021266 -2.4908553868021266
leaf_weight=1.0107132047414831 2.526783011853694 1.1117845252156247 1.6171411275863627 1.6171411275863645 1.0107132047414782 1.2128558456897733 1.516069807112215 1.5160698071122158 9.2985614836215955 1.8192837685346601 4.2449954599142075 5.457851305603981 7.7824916765093795 5.0535660237073898 9.1974901631474477 1.1117845252156251 1.0107132047414777 1.0107132047414777 47.806734584271908 1.9203550890088079
leaf_count=10 25 11 16 16 10 12 15 15 92 18 42 54 77 50 91 11 10 10 473 19
internal_value=-2.29059 -1.85793 -1.48982 -2.14572 -0.818298 -1.50146 -2.43678 -2.2534 -2.38825 -2.16873 -0.575887 -2.43432 -2.47877 -2.42018 -2.47146 -2.48739 -2.39663 -0.512055 -2.49086 -2.49086
internal_weight=0 27.4914 17.1821 8.69213 8.48999 2.22357 81.3624 15.1607 13.6446 4.34607 6.26642 7.07499 66.2017 8.48999 10.3093 57.7117 2.1225 5.25571 55.5892 6.97392
internal_count=1077 272 170 86 84 22 805 150 135 43 62 70 655 84 102 571 21 52 550 69
is_linear=0
shrinkage=1


Tree=4
num_leaves=20
num_cat=0
split_feature=55 32 59 4 40 50 50 4 25 4 9 47 35 40 2 47 2 2 50
split_gain=217.792 174.803 152.02 86.5184 30.7757 16.5143 8.14136 57.0293 56.198 7.52145 3.56229 2.95998 0.84639 0.722848 1.13687e-13 7.10543e-15 3.55271e-15 4.44089e-16 4.44089e-16
threshold=1.0000000180025095e-35 11.500000000000002 1.0000000180025095e-35 7.5000000000000009 7.5000000000000009 12.500000000000002 3.5000000000000004 1.0000000180025095e-35 12.500000000000002 1.0000000180025095e-35 1.5000000000000002 8.5000000000000018 11.500000000000002 15.500000000000002 7.5000000000000009 1.0000000180025095e-35 14.500000000000002 8.5000000000000018 14.500000000000002
decision_type=2 2 2 2 2 2 2 2 2 2 2 2 2 2 2 2 2 2 2
left_child=1 9 3 5 -5 11 7 8 -2 -1 -8 12 -3 -11 -14 18 -9 -4 -12
right_child=6 2 17 4 -6 -7 10 16 -10 13 15 -13 14 -15 -16 -17 -18 -19 -20
leaf_value=-1.9013468011477483 -2.3948621041685159 -0.70430968318247555 -2.4998653601303822 -2.4998653601303822 -1.103322055837568 -1.4116497983437737 -2.1371268395348455 -2.4998653601303822 -0.83731380740084105 -2.4998653601303822 -2.4998653601303822 -0.90381586951002313 -0.5048034968549322 -2.3336102048574277 -0.50480349685493264 -2.4998653601303822 -2.4998653601303822 -2.4998653601303817 -2.4998653601303817
leaf_weight=1.0024751722812677 1.9047028273344069 1.0024751722812633 2.1051978617906566 1.7042077928781503 1.002475172281265 1.1027226895093916 1.1027226895093907 9.4232666194438952 1.8044553101062772 8.0198013782501185 2.1051978617906562 1.002475172281265 3.1076730340719223 1.202970206737519 2.5061879307031631 56.940589785575867 8.2202964127063733 1.4034652411937711 1.3032177239656451
leaf_count=10 19 10 21 17 10 11 11 94 18 80 21 10 31 12 25 568 82 14 13
internal_value=-2.2998 -1.7845 -1.34835 -0.994819 -1.98263 -0.688257 -2.45639 -2.35 -1.63714 -2.42163 -2.49336 -0.583556 -0.535032 -2.47818 -0.504803 -2.49987 -2.49987 -2.49987 -2.49987
internal_weight=0 25.1621 14.9369 11.4282 2.70668 8.72153 82.8044 21.3527 3.70916 10.2252 61.4517 7.61881 6.61634 9.22277 5.61386 60.349 17.6436 3.50866 3.40842
internal_count=1077 251 149 114 27 87 826 213 37 102 613 76 66 92 56 602 176 35 34
is_linear=0
shrinkage=1


Tree=5
num_leaves=28
num_cat=0
split_feature=5 21 19 40 19 65 4 21 58 64 11 19 19 65 21 62 26 11 71 64 11 4 4 28 4 4 40
split_gain=128.022 215.475 124.557 32.8785 22.5703 108.515 25.2768 37.1231 46.9281 5.43122 8.94762 2.91547 2.77914 8.09798 14.5027 0.918729 0.80432 0.542725 2.34999 0.358889 0.608862 5.68434e-14 7.10543e-15 1.77636e-15 8.88178e-16 4.44089e-16 4.44089e-16
threshold=1.5000000000000002 1.0000000180025095e-35 4.5000000000000009 1.0000000180025095e-35 1.0000000180025095e-35 10.500000000000002 5.5000000000000009 1.0000000180025095e-35 8.5000000000000018 4.166666666666667 9.5000000000000018 2.5000000000000004 4.5000000000000009 5.5000000000000009 1.5000000000000002 0.55050505050505061 15.500000000000002 6.5000000000000009 -0.65068962986765244 1.6904761904761907 15.500000000000002 15.500000000000002 11.500000000000002 14.500000000000002 7.5000000000000009 12.500000000000002 15.500000000000002
decision_type=2 2 2 2 2 2 2 2 2 2 2 2 2 2 2 2 2 2 2 2 2 2 2 2 2 2 2
left_child=4 2 11 -4 5 6 15 8 -8 12 -11 21 13 16 -15 -1 -6 18 -14 22 -21 -2 -19 -17 26 -24 -20
right_child=1 -3 3 -5 9 -7 7 -9 -10 10 -12 -13 17 14 -16 23 -18 19 24 20 -22 -23 25 -25 -26 -27 -28
leaf_value=-2.2929753209323946 -0.51205472810480845 -2.4908553868021266 -1.3035749915837354 -2.4908553868021266 -2.4908553868021266 -0.63572976927338853 -0.51205472810480668 -2.4908553868021266 -2.3109644178296431 -1.6993351233231988 -2.4908553868021266 -0.8718366660497745 -2.1864245162333082 -1.7213217973087245 -2.4908553868021266 -2.4908553868021266 -2.3109644178296431 -2.4908553868021266 -2.4908553868021266 -2.4908553868021266 -2.2929753209323946 -0.51205472810480668 -2.4908553868021266 -2.4908553868021266 -2.4908553868021266 -2.4908553868021266 -2.4908553868021266
leaf_weight=1.010713204741484 2.0214264094829577 9.8039180859923345 1.5160698071122172 2.4257116913795471 9.3996328040957415 1.6171411275863636 1.2128558456897729 2.4257116913795471 1.1117845252156255 1.0107132047414773 1.3139271661639211 1.1117845252156255 1.3139271661639211 1.8192837685346597 2.1224977299571037 11.421059213578697 1.1117845252156264 39.721028946340084 2.4257116913795462 1.6171411275863639 1.010713204741478 2.7289256528019905 1.2128558456897729 1.7182124480605132 1.0107132047414777 2.6278543323278427 1.0107132047414782
leaf_count=10 20 97 15 24 93 16 12 24 11 10 13 11 13 18 21 113 11 393 24 16 10 27 12 17 10 26 10
internal_value=-2.29059 -1.82786 -1.16485 -2.03421 -2.39225 -2.20817 -2.34271 -1.94353 -1.3724 -2.44721 -2.14672 -0.580289 -2.45772 -2.38015 -2.13569 -2.47672 -2.47183 -2.47931 -2.42142 -2.48653 -2.41475 -0.512055 -2.49086 -2.49086 -2.49086 -2.49086 -2.49086
internal_weight=0 19.6078 9.80392 3.94178 89.246 20.5175 18.9003 4.75035 2.32464 68.7285 2.32464 5.86214 66.4039 14.4532 3.94178 14.15 10.5114 51.9507 5.76107 46.1896 2.62785 4.75035 43.5617 13.1393 4.44714 3.84071 3.43642
internal_count=1077 194 97 39 883 203 187 47 23 680 23 58 657 143 39 140 104 514 57 457 26 47 431 130 44 38 34
is_linear=0
shrinkage=1


Tree=6
num_leaves=23
num_cat=0
split_feature=43 69 32 59 32 58 48 32 27 58 59 43 58 34 69 27 36 1 2 1 1 2
split_gain=199.992 292.695 33.5981 101.95 26.4227 14.4615 26.444 12.7072 5.25608 30.7337 4.58722 2.92328 1.88948 1.02159 2.54417 0.151502 0.821705 7.10543e-15 7.10543e-15 8.88178e-16 8.88178e-16 4.44089e-16
threshold=8.5000000000000018 0.16025641025641027 15.500000000000002 2.5000000000000004 11.500000000000002 7.5000000000000009 9.5000000000000018 14.500000000000002 3.5000000000000004 10.500000000000002 1.5000000000000002 5.5000000000000009 7.5000000000000009 9.5000000000000018 0.29285714285714287 7.5000000000000009 2.5000000000000004 13.500000000000002 3.5000000000000004 11.500000000000002 6.5000000000000009 15.500000000000002
decision_type=2 2 2 2 2 2 2 2 2 2 2 2 2 2 2 2 2 2 2 2 2 2
left_child=2 4 8 5 -2 11 -7 -3 9 12 -6 13 -1 14 -4 16 19 18 -17 -10 -15 -19
right_child=1 7 3 -5 10 6 -8 -9 15 -11 -12 -13 -14 20 -16 17 -18 21 -20 -21 -22 -23
leaf_value=-2.4908553868021266 -1.6993351233232006 -2.4908553868021266 -2.0950952550626627 -0.73192146796006385 -0.90781485984427102 -2.4908553868021266 -1.1056949257140034 -1.7712915109121918 -2.4908553868021266 -1.5596550768269171 -0.51205472810480623 -2.0950952550626627 -2.270988646946869 -2.4908553868021266 -2.4908553868021266 -2.4908553868021266 -2.2929753209323946 -2.4908553868021266 -2.4908553868021266 -2.4908553868021266 -2.4908553868021266 -2.4908553868021266
leaf_weight=11.117845252156256 1.0107132047414804 8.3889195993542653 1.0107132047414764 1.8192837685346592 1.5160698071122167 1.2128558456897729 1.0107132047414777 1.1117845252156247 3.3353535756468764 1.7182124480605114 5.1546373441815376 1.0107132047414769 1.8192837685346592 6.2664218693971634 1.8192837685346601 4.3460667803883544 1.0107132047414777 2.021426409482955 47.806734584271908 1.6171411275863645 1.1117845252156255 1.617141127586365
leaf_count=110 10 83 10 18 15 12 10 11 33 17 51 10 18 62 18 43 10 20 473 16 11 16
internal_value=-2.29059 -1.66442 -2.40795 -2.13703 -0.746386 -2.3272 -1.86124 -2.40665 -2.46206 -2.35439 -0.602 -2.41955 -2.45994 -2.45167 -2.34951 -2.48762 -2.45732 -2.49086 -2.49086 -2.49086 -2.49086 -2.49086
internal_weight=0 17.1821 91.6717 15.2618 7.68142 13.4425 2.22357 9.5007 76.4099 14.6553 6.67071 11.2189 12.9371 10.2082 2.83 61.7546 5.96321 55.7914 52.1528 4.95249 7.37821 3.63857
internal_count=1077 170 907 151 76 133 22 94 756 145 66 111 128 101 28 611 59 552 516 49 73 36
is_linear=0
shrinkage=1


Tree=7
num_leaves=16
num_cat=0
split_feature=58 25 36 6 64 62 47 18 21 62 21 2 2 11 2
split_gain=272.893 268.054 142.723 87.3913 47.8665 20.6077 12.4536 3.50076 2.18389 0.845011 1.13687e-13 1.42109e-14 3.55271e-15 3.55271e-15 4.44089e-16
threshold=1.0000000180025095e-35 9.5000000000000018 1.0000000180025095e-35 1.5000000000000002 0.68990384615384626 0.57738095238095244 7.5000000000000009 4.5000000000000009 9.5000000000000018 1.2403846153846156 6.5000000000000009 7.5000000000000009 6.5000000000000009 15.500000000000002 14.500000000000002
decision_type=2 2 2 2 2 2 2 2 2 2 2 2 2 2 2
left_child=1 2 4 5 -1 -3 7 10 11 13 -4 12 -2 -7 -6
right_child=8 3 6 -5 14 9 -8 -9 -10 -11 -12 -13 -14 -15 -16
leaf_value=-0.89965636563083917 -2.5089615249562529 -1.5945835935213566 -0.49733007579947852 -0.49733007579948163 -2.5089615249562525 -2.5089615249562529 -1.3019826554621892 -0.89965636563083473 -2.2854469194943889 -2.3260859386692734 -0.49733007579947985 -2.5089615249562525 -2.5089615249562525 -2.5089615249562525 -2.5089615249562525
leaf_weight=0.99421791732311549 9.8427573814988101 1.0936397090554244 5.4681985452771169 0.99421791732311326 1.491326875984669 12.030036799609658 0.99421791732311238 0.99421791732311238 1.7895922511816014 1.0936397090554226 1.1930615007877348 65.419538959860802 0.99421791732311326 1.2924832925200469 1.3919050842523573
leaf_count=10 99 11 55 10 15 121 10 10 18 11 12 658 10 13 14
internal_value=-2.30911 -1.7856 -1.08805 -2.31507 -2.09632 -2.43159 -0.636063 -0.54958 -2.50384 -2.49509 -0.49733 -2.50896 -2.50896 -2.50896 -2.50896
internal_weight=0 29.0312 12.5271 16.504 3.87745 15.5098 8.6497 7.65548 78.0461 14.4162 6.66126 76.2565 10.837 13.3225 2.88323
internal_count=1077 292 126 166 39 156 87 77 785 145 67 767 109 134 29
is_linear=0
shrinkage=1


Tree=8
num_leaves=26
num_cat=0
split_feature=36 20 33 17 48 21 21 66 12 25 67 32 48 20 32 26 67 71 67 71 4 4 5 4 4
split_gain=85.474 113.899 175.695 87.6272 58.4053 24.5873 32.7317 20.9656 13.0203 12.7858 9.90337 9.68622 5.97112 12.3643 3.62118 2.2275 10.654 0.928155 0.285867 0.692909 5.68434e-14 7.10543e-15 3.55271e-15 8.88178e-16 4.44089e-16
threshold=1.0000000180025095e-35 9.5000000000000018 11.500000000000002 2.5000000000000004 15.500000000000002 1.5000000000000002 8.5000000000000018 1.0000000180025095e-35 13.500000000000002 1.0000000180025095e-35 3.5833333333333335 6.5000000000000009 6.5000000000000009 1.0000000180025095e-35 7.5000000000000009 12.500000000000002 3.2916666666666674 0.86370617428188068 4.8333333333333348 -0.16699671084778486 8.5000000000000018 15.500000000000002 3.5000000000000004 14.500000000000002 1.0000000180025095e-35
decision_type=2 2 2 2 2 2 2 2 2 2 2 2 2 2 2 2 2 2 2 2 2 2 2 2 2
left_child=1 5 10 9 7 8 -7 -5 12 -4 14 -10 13 -1 23 21 17 22 -14 -20 -9 -2 -17 -3 -21
right_child=15 2 3 4 -6 6 -8 20 11 -11 -12 -13 18 -15 -16 16 -18 -19 19 24 -22 -23 -24 -25 -26
leaf_value=-2.5274187758041791 -2.52741877580418 -2.52741877580418 -1.6750312157064098 -1.3584301219558084 -2.0159862397455179 -0.89083466041646031 -2.52741877580418 -0.48168863156953101 -2.3569412637846261 -2.52741877580418 -1.9591604024056664 -1.5045537036868561 -2.52741877580418 -1.7405994895600845 -2.1182727469572504 -2.52741877580418 -1.9890687378476934 -2.322845761380715 -2.322845761380715 -2.52741877580418 -0.48168863156953212 -2.52741877580418 -2.52741877580418 -2.52741877580418 -2.52741877580418
leaf_weight=2.1508212834596736 38.225960083305836 6.3546992465853709 1.1731752455234521 1.3687044531106929 1.5642336606979368 0.97764603793620952 0.97764603793621063 4.2038779631257057 1.1731752455234521 1.7597628682851789 1.759762868285178 0.97764603793621052 19.650685362517837 1.2709398493170736 0.97764603793621052 8.4077559262514061 1.8575274720787991 0.97764603793621141 0.97764603793621097 0.97764603793621008 1.1731752455234525 2.932938113808631 1.1731752455234534 1.1731752455234525 1.0754106417298315
leaf_count=22 391 65 12 14 16 10 10 43 12 18 18 10 201 13 10 86 19 10 10 10 12 30 12 12 11
internal_value=-2.32797 -2.14457 -1.79282 -1.24661 -0.914902 -2.39501 -1.70913 -0.659578 -2.44247 -2.18646 -2.39104 -1.96949 -2.48145 -2.23517 -2.48039 -2.50502 -2.43077 -2.50848 -2.5186 -2.46143 -0.481689 -2.52742 -2.52742 -2.52742 -2.52742
internal_weight=0 51.7175 21.5082 11.2429 8.30999 30.2093 1.95529 6.74576 28.254 2.93294 10.2653 2.15082 26.1031 3.42176 8.50552 53.575 12.4161 10.5586 22.6814 3.0307 5.37705 41.1589 9.58093 7.52787 2.05306
internal_count=1077 529 220 115 85 309 20 69 289 30 105 22 267 35 87 548 127 108 232 31 55 421 98 77 21
is_linear=0
shrinkage=1


Tree=9
num_leaves=25
num_cat=0
split_feature=40 20 31 63 68 34 20 40 16 50 4 19 12 4 34 13 16 11 39 8 16 4 2 4
split_gain=134.694 126.616 124.551 141.155 20.8015 14.2001 11.0854 21.4392 8.06293 7.36986 5.67678 5.24463 3.43976 2.77797 5.52479 1.7856 2.93789 1.91651 5.52109 0.887401 0.822526 0.805698 1.77636e-15 4.44089e-16
threshold=1.0000000180025095e-35 9.5000000000000018 2.5000000000000004 111.00000000000001 0.32291666666666669 6.5000000000000009 15.500000000000002 2.5000000000000004 5.5000000000000009 5.5000000000000009 8.5000000000000018 3.5000000000000004 14.500000000000002 1.0000000180025095e-35 9.5000000000000018 1.5000000000000002 6.5000000000000009 6.5000000000000009 3.5000000000000004 11.500000000000002 2.5000000000000004 10.500000000000002 12.500000000000002 10.500000000000002
decision_type=2 2 2 2 2 2 2 2 2 2 2 2 2 2 2 2 2 2 2 2 2 2 2 2
left_child=1 9 3 5 10 11 15 -8 20 -1 -5 -3 -13 14 -11 19 17 18 -17 -2 -9 -4 -19 -24
right_child=6 2 21 4 -6 -7 7 8 -10 13 -12 12 -14 -15 -16 16 -18 22 -20 -21 -22 -23 23 -25
leaf_value=-2.0010998943115195 -2.4998653601303822 -1.1033220558375703 -2.4998653601303822 -2.0304390393596878 -1.3028282421651127 -1.3262995582036472 -1.4116497983437721 -2.4998653601303822 -1.9298476849088251 -1.9013468011477472 -2.4998653601303822 -0.5048034968549322 -0.83731380740084105 -2.4998653601303822 -2.4998653601303817 -1.9557575792370776 -2.1848555922447845 -2.4998653601303822 -2.4998653601303822 -2.3184960998326138 -2.3003591738028368 -2.3003591738028368 -2.4998653601303817 -2.4998653601303822
leaf_weight=1.6039602756500233 50.324253648519516 1.0024751722812668 4.2103957235813132 1.7042077928781498 1.002475172281265 1.7042077928781507 1.1027226895093898 4.7116333097219467 1.4034652411937711 1.0024751722812646 2.6064354479312897 4.009900689125061 1.8044553101062772 10.726484343409536 1.6039602756500242 1.1027226895093911 1.9047028273344029 5.6138609647750837 2.3056928962469101 1.1027226895093907 1.002475172281265 1.002475172281265 1.3032177239656451 2.105197861790657
leaf_count=16 502 10 42 17 10 17 11 47 14 10 26 40 18 107 16 11 19 56 23 11 10 10 13 21
internal_value=-2.2998 -1.9702 -1.62834 -1.31439 -2.12344 -0.809931 -2.45121 -2.23224 -2.35937 -2.40614 -2.31428 -0.680838 -0.607996 -2.45486 -2.26967 -2.47858 -2.41616 -2.4516 -2.32383 -2.49598 -2.46486 -2.4615 -2.49987 -2.49987
internal_weight=0 33.9839 19.047 13.8342 5.31312 8.52104 73.9827 8.2203 7.11757 14.9369 4.31064 6.81683 5.81436 13.3329 2.60644 65.7624 14.3354 12.4307 3.40842 51.427 5.71411 5.21287 9.02228 3.40842
internal_count=1077 339 190 138 53 85 738 82 71 149 43 68 58 133 26 656 143 124 34 513 57 52 90 34
is_linear=0
shrinkage=1


Tree=10
num_leaves=63
num_cat=0
split_feature=63 27 20 32 70 41 27 20 12 57 38 42 18 63 42 38 24 18 32 20 12 19 70 18 68 68 71 71 20 49 32 61 57 69 2 12 32 42 2 68 57 19 25 70 27 12 19 42 17 62 4 18 55 17 69 68 32 41 55 54 38 27
split_gain=144.981 38.5039 14.2706 2.94195 1.8922 1.58815 1.26421 7.60848 0.486236 0.0358539 0.0381607 0.0263239 0.00340861 0.00313828 0.0100983 0.000739479 0.000302964 0.000297092 0.000342348 0.00166289 0.000291346 0.000508616 0.000244115 0.000205745 0.000202024 0.00018329 0.000168485 0.000133347 0.000119536 0.000118608 0.000165528 0.000109043 0.000216616 0.000162942 0.000149012 0.00010072 0.000132875 0.000140339 0.000116429 0.000125351 9.52125e-05 9.55485e-05 0.000275332 0.000168422 0.000170373 9.20434e-05 7.95466e-05 7.68264e-05 7.60874e-05 7.51107e-05 7.13559e-05 6.99947e-05 6.71834e-05 6.31726e-05 5.64614e-05 6.21018e-05 4.95107e-05 4.64248e-05 4.48954e-05 4.35887e-05 3.84184e-05 3.7306e-05
threshold=1.0000000180025095e-35 4.5000000000000009 1.5000000000000002 13.500000000000002 0.21825396825396828 5.5000000000000009 1.0000000180025095e-35 5.5000000000000009 7.5000000000000009 15.500000000000002 1.5000000000000002 13.500000000000002 3.5000000000000004 32.500000000000007 14.500000000000002 11.500000000000002 1.5000000000000002 7.5000000000000009 15.500000000000002 12.500000000000002 3.5000000000000004 15.500000000000002 0.81534090909090928 14.500000000000002 1.0741758241758244 1.6333333333333335 -0.52475758449622822 0.31945651406329595 11.500000000000002 11.500000000000002 7.5000000000000009 120.50000000000001 8.5000000000000018 0.96153846153846168 6.5000000000000009 14.500000000000002 8.5000000000000018 4.5000000000000009 14.500000000000002 2.1714285714285722 14.500000000000002 1.5000000000000002 10.500000000000002 0.59166666666666679 12.500000000000002 2.5000000000000004 2.5000000000000004 11.500000000000002 9.5000000000000018 0.25833333333333336 1.5000000000000002 6.5000000000000009 7.5000000000000009 14.500000000000002 1.9375000000000002 3.5833333333333335 14.500000000000002 6.5000000000000009 1.5000000000000002 1.0000000180025095e-35 2.5000000000000004 15.500000000000002
decision_type=2 2 2 2 2 2 2 2 2 2 2 2 2 2 2 2 2 2 2 2 2 2 2 2 2 2 2 2 2 2 2 2 2 2 2 2 2 2 2 2 2 2 2 2 2 2 2 2 2 2 2 2 2 2 2 2 2 2 2 2 2 2
left_child=1 2 5 8 -5 -1 7 23 -4 10 -10 12 -12 14 28 17 45 24 31 20 60 -22 -18 47 26 -26 29 54 49 46 48 32 -19 34 -34 36 37 50 39 -39 41 -28 43 -43 -45 -3 -15 -2 -31 -8 -33 -51 56 -44 55 -27 -38 -36 -37 -46 -20 -48
right_child=6 16 3 4 -6 -7 13 -9 9 -11 11 -13 -14 15 -16 -17 22 18 19 -21 21 -23 -24 -25 25 27 40 -29 -30 30 -32 35 33 -35 57 58 52 38 -40 -41 -42 42 53 44 59 -47 61 -49 -50 51 -52 -53 -54 -55 -56 -57 -58 -59 -60 -61 -62 -63
leaf_value=0.1191294673653556 -0.19168106269901772 -0.19480414255306039 0.49564694582093582 0.71427275224680264 0.49787968322257775 -0.21845703589754673 -0.19349092437860022 0.44577657116454789 0.38083843705046982 0.42628394503981309 0.3979389220742835 0.42510258987149446 0.40652209243594578 -0.19473622567367962 -0.21679756404722164 -0.19806134904978293 -0.19400081484467901 -0.19233438624444718 -0.19194990721133423 -0.20287559412757417 -0.19905522113303692 -0.19209921361150545 -0.19864763859767173 -0.195485575080355 -0.19685489547820589 -0.1950411274507988 -0.19179738879615257 -0.19208058691808794 -0.19246079444909836 -0.19720062787366502 -0.19247531230174958 -0.19403821344051719 -0.19669019210247446 -0.19728163858016204 -0.19218711578226252 -0.19150159578805181 -0.19174073910281705 -0.19685043537182736 -0.19314225484510858 -0.19362258536085397 -0.19181332586706559 -0.19168755874058899 -0.19596811557979146 -0.19623165554153615 -0.19199264922495865 -0.19226098041262152 -0.1914868965350035 -0.19352462691056896 -0.19456635058214769 -0.19397979012979594 -0.19143562049309484 -0.19633267877371369 -0.19436327178299517 -0.19375798742316883 -0.19556693028223382 -0.19256748111352215 -0.19360002412532396 -0.19423186735912823 -0.19316027330874624 -0.19389475207575252 -0.19348020997708892 -0.19305105168839043
leaf_weight=1.0341161973774462 2.1450927741825576 0.77246630191802923 2.9721743613481584 2.453460104763507 4.7374835684895515 1.2092292606830595 0.90918874368071501 0.87938994541764248 2.5474312826991072 3.2436051964759818 3.853460878133772 2.7075947821140289 3.5609733760356903 0.74908481165767016 1.003215044736862 1.4550902023911465 0.94762933626770951 1.5074417293071807 1.7395918555557721 0.98006374761462201 0.91321020573377587 0.77925174683332443 0.86498729139566422 1.1848367936909197 0.86660804599523444 0.76043250039219878 2.7980812229216161 1.4151792526245115 0.91836807504296292 0.85798119753599189 0.86624054983258236 0.88122216239571372 0.75314974784851152 1.0537760257720945 0.78664582595229138 1.6134738735854619 2.1501486189663419 1.5256718322634704 0.90490229427814473 0.70297785103321064 5.5425967648625365 4.0433961451053602 1.3157705217599871 0.7732094153761867 1.225626088678837 2.1638590693473816 1.0608295314013958 1.5629952624440191 0.89721939712762833 0.72330487146973643 0.80752815678715706 1.6812912970781324 0.74484495818614949 0.85247588157653797 1.11543857678771 0.87090956047177315 0.78096476942300785 1.0201206803321836 1.0962127596139906 0.79417449980974186 1.053684528917074 1.4349720180034637
leaf_count=8 34 10 12 12 19 12 13 9 10 12 14 10 13 10 10 19 13 23 27 11 10 12 10 15 10 10 44 22 14 10 13 12 9 12 12 26 34 18 13 10 87 64 16 10 19 33 17 22 12 10 13 20 10 12 14 13 11 14 16 11 15 21
internal_value=0 0.332826 0.421202 0.462844 0.57171 -0.0628396 -0.185017 -0.095847 0.421391 0.407522 0.402718 0.408225 0.402061 -0.194091 -0.198756 -0.193617 -0.194185 -0.193488 -0.194042 -0.195412 -0.193782 -0.195853 -0.196218 -0.193191 -0.193059 -0.194209 -0.19281 -0.193658 -0.19448 -0.193737 -0.194738 -0.193584 -0.194348 -0.195188 -0.194327 -0.193234 -0.193573 -0.194263 -0.195055 -0.195832 -0.192497 -0.192818 -0.193135 -0.192513 -0.193707 -0.19293 -0.192929 -0.192458 -0.195854 -0.195039 -0.192794 -0.195625 -0.192667 -0.195099 -0.19447 -0.193721 -0.192236 -0.193342 -0.192173 -0.192741 -0.192527 -0.192386
internal_weight=0 33.0685 28.3195 26.0762 7.19094 2.24335 62.4979 5.77231 18.8852 15.9131 12.6695 10.122 7.41443 56.7256 5.23537 51.4902 4.74894 50.0351 21.7949 5.4658 4.48574 1.69246 1.81262 4.89292 28.2402 5.02857 23.2117 4.16196 4.23215 5.86633 2.62144 16.3291 5.12113 3.61369 2.55992 11.2079 8.49826 4.8223 3.13355 2.22865 17.3453 11.8027 9.00465 6.83641 2.79301 2.93633 3.24489 3.70809 1.7552 3.31378 1.68875 2.4046 3.67596 2.16825 2.74678 1.63134 2.93111 1.80677 2.70969 2.0198 2.79328 2.4958
internal_count=1077 188 122 102 31 20 889 80 71 59 47 37 27 809 67 742 66 723 308 75 64 22 23 71 415 69 346 59 57 83 35 233 70 47 35 163 121 66 41 28 263 176 132 104 40 43 48 56 22 43 25 30 55 28 37 23 45 26 42 30 42 38
is_linear=0
shrinkage=0.2


Tree=11
num_leaves=63
num_cat=0
split_feature=18 36 61 9 12 47 48 27 60 48 57 12 67 17 17 39 18 47 12 60 61 49 64 64 27 60 40 20 40 26 61 47 40 64 47 27 18 19 57 40 48 19 67 57 62 31 61 62 20 48 48 40 19 46 19 61 63 27 70 48 61 40
split_gain=116.515 38.8663 21.1703 14.7051 10.5887 6.71507 12.8556 4.91019 2.70477 2.39665 1.76471 4.58233 1.75544 1.13432 1.1295 0.801033 0.379959 1.30126 2.10363 0.0293534 0.0163608 0.0200833 0.00237106 0.00157809 0.000869204 0.000662845 0.00121321 0.00052818 0.00119243 0.000385635 0.000343117 0.000286038 0.000228505 0.000201622 0.000186584 0.000185018 0.000176032 0.000193189 0.000146492 0.000141354 0.000150168 0.000180334 0.000132986 0.000117537 0.000115768 0.000114083 0.000135849 0.000156032 0.000129368 0.000127581 0.000111828 9.8115e-05 8.85429e-05 8.23112e-05 9.43552e-05 7.59195e-05 7.14365e-05 7.05192e-05 7.40399e-05 6.06357e-05 5.27247e-05 5.22328e-05
threshold=12.500000000000002 1.0000000180025095e-35 41.000000000000007 1.0000000180025095e-35 14.500000000000002 10.500000000000002 15.500000000000002 15.500000000000002 4.5000000000000009 14.500000000000002 13.500000000000002 15.500000000000002 1.4772727272727275 4.5000000000000009 10.500000000000002 9.5000000000000018 9.5000000000000018 1.0000000180025095e-35 8.5000000000000018 10.500000000000002 248.00000000000003 10.500000000000002 5.166666666666667 1.7638888888888891 1.5000000000000002 2.5000000000000004 7.5000000000000009 7.5000000000000009 5.5000000000000009 13.500000000000002 232.50000000000003 4.5000000000000009 8.5000000000000018 0.73030303030303034 1.0000000180025095e-35 6.5000000000000009 1.0000000180025095e-35 11.500000000000002 15.500000000000002 13.500000000000002 2.5000000000000004 7.5000000000000009 1.4772727272727275 12.500000000000002 0.51666666666666672 2.5000000000000004 168.50000000000003 1.3484848484848486 1.0000000180025095e-35 14.500000000000002 12.500000000000002 2.5000000000000004 8.5000000000000018 2.5000000000000004 3.5000000000000004 155.00000000000003 114.50000000000001 15.500000000000002 0.59166666666666679 10.500000000000002 158.00000000000003 1.5000000000000002
decision_type=2 2 2 2 2 2 2 2 2 2 2 2 2 2 2 2 2 2 2 2 2 2 2 2 2 2 2 2 2 2 2 2 2 2 2 2 2 2 2 2 2 2 2 2 2 2 2 2 2 2 2 2 2 2 2 2 2 2 2 2 2 2
left_child=3 2 15 7 27 8 32 -1 9 10 11 -4 -11 -14 -8 -2 19 18 -18 20 22 31 25 33 -17 29 -27 28 -3 35 44 -22 -7 52 -31 38 53 45 -5 40 41 -36 -35 55 -30 46 47 48 -38 -47 51 -40 -19 54 60 -39 -53 61 -59 -48 -37 -42
right_child=1 4 5 16 -6 6 14 -9 -10 12 -12 -13 13 -15 -16 24 17 23 -20 -21 21 -23 -24 -25 -26 26 -28 -29 30 34 -32 -33 -34 42 39 36 37 43 50 -41 57 -43 -44 -45 -46 49 59 -49 -50 -51 -52 56 -54 -55 -56 -57 -58 58 -60 -61 -62 -63
leaf_value=-0.070314785200408847 0.03878354712274535 -0.20286441636154118 0.085404269975253827 -0.19215534021441116 0.31819701488142416 -0.19430323450842049 0.34424461929324524 0.40510660748549632 0.69991878185747236 0.76753712571352373 0.53414790015303437 0.50660932634535183 0.64591495642493657 0.4561388962047388 0.52405035018705737 -0.19403771564622818 -0.19449109393682615 -0.19212284118606449 0.22870279765145651 -0.22971245149397782 -0.19827696649734561 -0.22611440897516602 -0.20468324154101816 -0.20377020226011267 -0.20277528294748881 -0.20289928586502298 -0.19196168183703402 -0.19274685281708998 -0.19503137793075884 -0.19726646783444213 -0.19861262571211147 -0.19364566413246198 -0.19908208473538525 -0.19398548632719773 -0.19791839785802912 -0.19483537764222172 -0.19465945858213005 -0.19530347479132482 -0.1928826173545021 -0.19621688351753172 -0.19354990215289633 -0.19384392337368214 -0.19730034848143005 -0.19213193099929479 -0.19243997054587036 -0.19249052618523946 -0.19247793353668546 -0.19319765269983985 -0.19748401244027336 -0.19558830998047155 -0.19172600395890202 -0.19623251645879158 -0.19443884425182065 -0.19478864858639283 -0.19227334982224109 -0.19267948067021087 -0.19363613662105808 -0.19580081108984762 -0.19338429308444802 -0.19475322928084621 -0.19273699819598089 -0.19192799633982516
leaf_weight=1.4074626192450517 0.82591522485018076 0.91127227991819193 1.7633176669478468 8.5347068570554239 2.1031646877527237 0.80071339011192211 2.4924014210700989 2.2711811140179634 3.1662480980157843 1.5384616404771803 2.9156890586018562 2.4949404001235962 1.9859619885683057 3.4456416964530945 3.1810176372528076 1.0864662751555441 1.0448060110211361 2.0828378535807137 0.853773534297943 0.9902128279209127 0.95336303114891041 1.4480871334671972 0.80074337869882484 0.73976679891347874 0.78405647724866856 0.84789526462554821 0.77772779762744904 2.4258720390498638 1.3637473993003375 0.99239039421081443 0.724170222878456 1.2110341936349867 0.80020128935575485 1.0909602269530294 0.76835930347442438 1.0644410848617569 0.97666511684656043 1.0828502923250196 1.2804033085703848 1.3894570171833036 2.061909276992083 1.0000009462237356 0.87027418613433827 2.5436106435954571 1.394871864467859 1.606932479888201 0.79811098799109448 0.69399425387382496 1.9310306534171102 0.79483859241008747 0.94715987890958775 1.0492209531366823 0.96677197143435467 0.82541719451546658 5.6577450297772884 0.74414305388927449 0.71120350807905186 0.87998327985405955 1.1970677450299261 1.1344322040677068 0.87080431729555119 1.2918608635663984
leaf_count=15 9 9 14 131 13 11 11 10 15 8 14 10 9 15 13 15 14 32 8 6 11 12 8 8 8 9 12 36 18 12 8 17 9 15 9 14 13 14 19 17 29 14 10 39 21 24 12 10 22 10 15 13 13 11 86 11 10 11 17 15 13 20
internal_value=0 0.288206 0.406719 -0.164456 -0.0741284 0.465067 0.303825 0.223209 0.532826 0.495421 0.414272 0.332191 0.578944 0.525527 0.44506 -0.125266 -0.189254 -0.147749 -0.00418474 -0.195622 -0.194931 -0.207883 -0.193897 -0.195147 -0.1977 -0.193703 -0.197667 -0.195116 -0.196423 -0.193552 -0.194738 -0.195686 -0.196692 -0.193874 -0.19467 -0.19323 -0.193597 -0.194079 -0.192623 -0.19437 -0.194014 -0.195614 -0.195456 -0.193011 -0.193721 -0.194667 -0.195166 -0.195892 -0.196535 -0.193516 -0.193624 -0.194215 -0.192857 -0.192892 -0.192686 -0.194235 -0.195184 -0.193492 -0.194408 -0.193814 -0.193891 -0.192925
internal_weight=0 36.2041 27.281 61.1856 8.9231 24.5846 7.27433 3.67864 17.3103 14.144 7.17395 4.25826 6.97007 5.4316 5.67342 2.69644 57.507 7.64919 1.89858 49.8578 48.8676 3.61248 45.2551 5.75061 1.87052 44.4544 1.62562 6.81993 4.39406 42.8287 3.48279 2.1644 1.60091 5.01084 9.58103 33.2477 20.725 12.3066 12.5227 8.58864 7.19918 1.76836 1.96123 4.3706 2.75862 7.936 5.53423 3.60169 2.9077 2.40177 3.98799 3.04083 3.04961 8.41841 7.59299 1.82699 1.76042 5.43082 2.07705 1.93254 1.93525 3.35377
internal_count=1077 266 161 811 105 129 44 25 85 70 38 24 32 24 24 32 786 100 22 686 680 40 640 78 23 632 21 92 56 611 47 28 20 70 129 482 294 170 188 117 100 23 25 64 39 106 72 45 35 34 57 42 45 124 113 25 23 77 28 27 27 49
is_linear=0
shrinkage=0.2


Tree=12
num_leaves=63
num_cat=0
split_feature=59 42 36 35 43 49 47 26 42 33 49 68 26 35 32 43 9 64 50 49 26 19 32 63 64 32 68 9 11 56 32 33 42 59 64 19 16 33 4 10 48 36 61 63 27 2 10 47 48 56 61 19 4 64 50 50 2 4 33 16 10 63
split_gain=66.3358 44.2284 25.5371 16.5796 25.4555 8.93432 8.52575 4.32606 4.09298 2.29246 1.0136 0.835802 0.524712 0.272976 1.14618 0.0166003 0.0129208 0.018847 0.00365492 0.00131289 0.000699535 0.000566684 0.00122796 0.00326396 0.000459806 0.000259447 0.000255394 0.000227497 0.000198685 0.000195944 0.000238317 0.000192014 0.000183035 0.000129209 0.00012425 0.000118956 0.000110928 9.59954e-05 0.000130168 9.23283e-05 9.22473e-05 8.85286e-05 8.81489e-05 7.04842e-05 0.000110475 6.64565e-05 6.58058e-05 6.72155e-05 8.37171e-05 6.46263e-05 5.69158e-05 7.24232e-05 4.88401e-05 4.70609e-05 4.55106e-05 4.15405e-05 4.09726e-05 4.41538e-05 3.74735e-05 3.49173e-05 3.3711e-05 2.99618e-05
threshold=2.5000000000000004 7.5000000000000009 1.0000000180025095e-35 2.5000000000000004 1.0000000180025095e-35 15.500000000000002 15.500000000000002 15.500000000000002 2.5000000000000004 10.500000000000002 14.500000000000002 9.0000000000000018 7.5000000000000009 4.5000000000000009 3.5000000000000004 1.0000000180025095e-35 13.500000000000002 0.89444444444444449 15.500000000000002 2.5000000000000004 7.5000000000000009 8.5000000000000018 1.0000000180025095e-35 193.50000000000003 4.166666666666667 2.5000000000000004 1.7638888888888891 15.500000000000002 12.500000000000002 10.500000000000002 8.5000000000000018 11.500000000000002 14.500000000000002 1.0000000180025095e-35 0.65476190476190488 2.5000000000000004 2.5000000000000004 1.5000000000000002 14.500000000000002 15.500000000000002 14.500000000000002 1.0000000180025095e-35 80.500000000000014 46.500000000000007 13.500000000000002 14.500000000000002 8.5000000000000018 1.5000000000000002 9.5000000000000018 13.500000000000002 143.50000000000003 8.5000000000000018 11.500000000000002 0.87083333333333346 9.5000000000000018 13.500000000000002 11.500000000000002 7.5000000000000009 15.500000000000002 9.5000000000000018 7.5000000000000009 217.00000000000003
decision_type=2 2 2 2 2 2 2 2 2 2 2 2 2 2 2 2 2 2 2 2 2 2 2 2 2 2 2 2 2 2 2 2 2 2 2 2 2 2 2 2 2 2 2 2 2 2 2 2 2 2 2 2 2 2 2 2 2 2 2 2 2 2
left_child=3 2 7 4 6 15 12 8 10 -6 16 13 -1 14 -5 -3 -2 59 26 -14 29 22 23 49 37 28 34 43 -21 30 -15 -27 39 -31 58 -4 -29 -24 40 -32 42 61 55 -23 -45 -35 -44 -48 -49 -22 51 -33 56 -40 -37 -39 57 -46 -17 -18 -58 -16
right_child=1 5 35 11 9 -7 -8 -9 -10 -11 -12 -13 19 20 41 18 17 -19 -20 25 21 27 24 -25 -26 31 -28 36 -30 33 32 50 -34 45 -36 54 -38 38 53 -41 -42 -43 46 44 52 -47 47 48 -50 -51 -52 -53 -54 -55 -56 -57 60 -59 -60 -61 -62 -63
leaf_value=-0.050694685431067581 0.4208278582183666 -0.21519670446767358 -0.19154298318050966 0.10162073587953109 0.30665052859267311 0.33515407596815638 0.3535536722209382 0.18697057320595514 0.69866967931437118 0.58958962441152307 0.52349774181462205 0.028525427557885803 -0.20122555744822113 -0.19695963770128674 -0.19482509482093591 -0.19175189990178007 0.39824713442451409 0.41809754096384744 -0.20653674700880545 -0.19368796088959017 -0.19338459343820391 -0.1915668182336161 -0.19575146477611355 -0.20985271086283258 -0.19902298081109582 -0.19629255158471201 -0.19612319263848857 -0.19360155598911841 -0.19743065848742186 -0.19207412271340601 -0.19160109965789143 -0.19256363166013846 -0.19597846497857796 -0.19468063252752332 -0.19491930024823828 -0.19331045363977728 -0.19621683503986911 -0.19203105335182402 -0.19147820009998695 -0.19426459224547299 -0.1958070712902128 -0.1915931821721745 -0.19598332134042507 -0.19516523494135957 -0.19126150130426406 -0.19227101891510992 -0.1929098848510746 -0.19612446341608133 -0.19340881755497782 -0.19569138335001024 -0.19186982619012233 -0.19491468276190349 -0.19164684309967214 -0.19333971683780485 -0.19535689683947383 -0.19388221191808636 -0.19472566803261848 -0.19330490884862897 -0.19312585848749986 0.39921182223316154 -0.19312618511178109 -0.19304541946680648
leaf_weight=1.1448517814278574 2.7176697850227454 2.1860600672662223 1.0681515038013452 0.66073078289627973 2.2809900082647792 1.4521019011735923 1.3792993314564235 2.2865811362862578 2.8589437678456298 2.3008977547287941 4.1700953841209403 0.71542508155107398 1.1274488903582076 0.82502137124538677 0.75713165104389213 2.8610389940440655 3.3025885820388776 2.9881424605846405 0.95926592499017704 1.0669264458119871 0.90698593482375445 1.5561492517590503 1.0479317381978006 0.79038203880190838 0.76316086947918016 0.66291435807943333 0.98554670065641392 1.281459026038646 1.2116916626691816 11.19774194061756 1.8223420903086669 1.6747163832187655 0.71714404970407475 1.2834964841604222 0.76376718282699574 0.98004343733191468 1.3138664811849592 1.2295945920050129 1.1240422092378142 0.72877216339111317 1.125070836395025 1.125024117529392 0.81459705904126201 0.86869084089994419 0.85893104225397088 0.71169114857912052 1.3676559627056124 0.90789663046598412 0.90840410441160202 1.0461027100682256 2.0516472607851028 0.76282329112291325 1.2629662677645681 1.0513207130134103 0.78115154802799225 0.80061514675617207 0.69053918123245273 0.83336964622139931 1.0990525782108309 2.7509355545043945 2.2265743836760521 0.75644998997449875
leaf_count=14 10 19 17 8 12 12 13 17 14 13 17 6 13 10 10 45 12 11 8 15 13 25 13 7 8 8 12 18 14 173 29 25 9 17 10 14 16 19 18 10 14 18 10 11 14 11 20 11 13 13 32 10 20 15 10 11 9 12 16 10 32 11
internal_value=0 0.221651 0.370972 -0.125534 0.0522193 -0.124665 -0.111717 0.446714 0.478325 0.448735 0.438779 -0.185962 -0.177855 -0.189345 -0.133948 -0.200072 0.408736 0.405101 -0.195114 -0.194866 -0.19369 -0.194371 -0.195218 -0.199009 -0.194285 -0.193901 -0.193195 -0.193291 -0.195678 -0.192713 -0.193922 -0.193115 -0.193156 -0.192338 -0.192584 -0.193208 -0.194926 -0.193936 -0.193733 -0.192362 -0.194145 -0.192937 -0.193834 -0.19278 -0.19306 -0.193821 -0.194379 -0.193969 -0.194766 -0.19462 -0.192646 -0.193299 -0.192749 -0.192378 -0.194218 -0.192761 -0.193051 -0.192268 -0.192133 0.398686 -0.193505 -0.193936
internal_weight=0 34.2111 23.9043 61.7415 15.6642 10.3068 11.0823 21.075 18.7884 4.58189 15.9294 46.0773 9.70302 45.3619 3.29934 8.85473 11.7593 9.04167 6.66867 8.55817 42.0625 24.7763 13.8838 2.74347 11.1403 7.43072 5.70941 10.8925 2.27862 17.2862 4.09328 5.1521 3.26826 13.1929 4.72386 2.82935 2.59533 10.3771 9.3292 2.55111 7.15383 2.63861 6.02876 8.29722 6.74107 1.99519 3.99855 3.18396 1.8163 1.95309 4.48919 2.43754 5.87238 2.17536 1.76119 2.03021 4.60941 1.6923 3.96009 6.05352 2.91711 1.51358
internal_count=1077 254 132 823 169 122 144 91 74 25 60 654 131 648 47 110 43 33 91 117 601 342 185 33 152 104 83 157 29 259 58 75 48 201 71 41 34 144 131 39 98 39 84 123 98 28 54 44 24 26 67 35 87 33 24 30 67 26 61 22 41 21
is_linear=0
shrinkage=0.2


Tree=13
num_leaves=63
num_cat=0
split_feature=25 48 18 16 62 63 43 50 11 10 62 51 50 68 66 18 71 63 28 43 49 33 48 43 28 18 50 71 17 47 18 10 31 33 43 50 71 17 4 59 11 10 12 33 69 12 17 63 57 68 66 33 71 47 59 67 68 62 31 31 47 71
split_gain=79.952 49.6296 18.4129 10.3101 8.22708 6.91673 5.39624 4.43811 7.57327 3.64101 3.54667 7.39201 1.37231 2.85019 1.12627 4.81394 0.989048 0.954417 0.747417 0.569925 0.266265 0.0179359 0.00329308 0.00817699 0.00955488 0.0025734 0.00137258 0.00121209 0.00150838 0.000705254 0.000314351 0.000278236 0.000248467 0.000297805 0.000225236 0.000219481 0.000186461 0.000188457 0.000168779 0.000148255 0.000129392 0.000129256 0.000186115 0.000120588 0.000160779 0.000127819 0.000110397 0.000101926 0.000100364 9.65768e-05 8.90799e-05 8.87636e-05 8.0149e-05 7.26049e-05 0.000125881 0.000106202 6.3761e-05 5.60438e-05 5.54899e-05 4.64713e-05 4.53587e-05 4.07291e-05
threshold=5.5000000000000009 11.500000000000002 8.5000000000000018 1.5000000000000002 0.96875000000000011 86.000000000000014 8.5000000000000018 8.5000000000000018 9.5000000000000018 7.5000000000000009 0.22500000000000003 2.5000000000000004 13.500000000000002 0.64583333333333337 1.6904761904761907 2.5000000000000004 0.95285364959085384 93.500000000000014 8.5000000000000018 8.5000000000000018 9.5000000000000018 6.5000000000000009 4.5000000000000009 7.5000000000000009 9.5000000000000018 5.5000000000000009 8.5000000000000018 0.3176551099279295 3.5000000000000004 5.5000000000000009 13.500000000000002 9.5000000000000018 1.0000000180025095e-35 13.500000000000002 1.5000000000000002 14.500000000000002 0.39232799573789251 13.500000000000002 2.5000000000000004 5.5000000000000009 12.500000000000002 8.5000000000000018 10.500000000000002 1.0000000180025095e-35 1.7638888888888891 5.5000000000000009 8.5000000000000018 202.00000000000003 12.500000000000002 1.0972222222222225 0.70329670329670335 14.500000000000002 -0.26301898134378515 4.5000000000000009 1.5000000000000002 2.2250000000000005 0.31009615384615391 1.7083333333333337 4.5000000000000009 3.5000000000000004 11.500000000000002 -0.13868443467380229
decision_type=2 2 2 2 2 2 2 2 2 2 2 2 2 2 2 2 2 2 2 2 2 2 2 2 2 2 2 2 2 2 2 2 2 2 2 2 2 2 2 2 2 2 2 2 2 2 2 2 2 2 2 2 2 2 2 2 2 2 2 2 2 2
left_child=1 2 4 19 7 -6 9 8 -1 -3 11 29 17 18 16 -16 22 -9 20 21 -14 -4 23 31 -25 35 -23 30 -29 51 61 46 33 36 52 -11 39 -38 49 40 41 -24 -43 45 53 -34 -12 56 -48 -35 -33 -2 -17 -45 55 59 60 -40 -36 -55 -46 -27
right_child=10 6 3 -5 5 -7 -8 12 -10 25 14 -13 13 -15 15 34 -18 -19 -20 -21 -22 26 32 24 -26 27 -28 28 -30 -31 -32 50 43 38 58 -37 37 -39 57 -41 -42 42 -44 44 47 -47 48 -49 -50 -51 -52 -53 -54 54 -56 -57 -58 -59 -60 -61 -62 -63
leaf_value=0.46576962951042067 -0.1921323224031416 0.21840984250865403 -0.23076581620423622 0.46940767105911113 -0.19948320641218753 0.34209500504903384 0.30809191284243803 0.28696019727543964 -0.1973088647137371 -0.19201311432981599 -0.19719125071084953 0.34492993957016738 0.42251410512287518 0.74442680105948023 0.30005251594374882 -0.19743048637432206 0.010171662733165743 0.46050703222049338 0.57293560117010534 -0.031132790431892474 0.49896466898933478 -0.20451065997853665 -0.19800065814568302 -0.21900742797496267 -0.19537577658787342 -0.19490077447077184 -0.19369907122786964 -0.20750557026863481 -0.19696827881059684 -0.20034875719165399 -0.19813125872495843 -0.19207472586456376 -0.19425610229843487 -0.1936866068314157 -0.19202046929469446 -0.1949328623001918 -0.19432173951780141 -0.19821575179291684 -0.19211962434483643 -0.19211386344250059 -0.19321167106305515 -0.1930264613345557 -0.19691075206777647 -0.19235042117560772 -0.19410985851988985 -0.19177805585067895 -0.19282992625259554 -0.19638060552956857 -0.19550298417334466 -0.19612785002333144 -0.19456963431685445 -0.19493877454070463 -0.19459531520400275 -0.19214458108056065 -0.19230785619395374 -0.19574402243128836 -0.19513425119165084 -0.19413961005059013 -0.19414953488879291 -0.19393812487218554 -0.19191709100963678 -0.19276902286142911
leaf_weight=1.9098629653453927 1.1086246818304055 0.9204605333507051 1.128714997321367 1.3641312569379804 1.4909333065152157 2.5679539516568184 1.0519505366682995 1.7314993590116525 1.0778189003467558 4.9906158447265607 0.85762060061097001 1.6296263784170149 4.6009694337844831 2.0297294706106177 1.0086725875735272 0.88052405416965485 0.96605920791625877 4.7305846810340881 2.844637542963028 0.92219708859920491 3.0173184797167778 0.90162306278943993 0.72648590058088203 1.3411887697875502 1.3974865749478338 0.7563740648329258 0.98047745600342751 1.0889896154403689 1.0845862925052641 0.80692129582166661 1.3607728183269499 2.5350010804831986 1.0305660851299787 2.3524008132517342 1.1066404357552526 1.297592084854841 0.81903002411127124 1.264931760728359 3.5122908800840378 0.90507879853248585 1.1832880377769468 1.0333552360534666 0.94433968514204014 4.3023531623184663 0.80820173397660233 4.3344104140996933 0.87037462741136584 0.90487392246723164 1.5850308053195474 0.89475005492568005 0.73941058665513981 0.75971500575542439 0.72908672317862533 0.78474093973636661 2.5755914077162743 1.1281663477420805 1.0150231271982191 0.65127726271748532 0.87827669829130162 2.1918957158923149 0.70781395584344864 0.68152873963117622
leaf_count=12 17 11 9 9 19 16 7 10 14 77 10 7 17 11 5 10 12 18 12 8 12 9 8 12 18 10 14 10 13 9 16 39 14 33 17 17 11 14 54 14 17 15 11 65 11 68 13 11 20 11 10 10 10 12 39 14 13 9 12 30 11 10
internal_value=0 0.198206 0.335494 -0.00437119 0.404733 0.143159 -0.126509 0.453119 0.226561 -0.164042 -0.164907 0.00913861 0.488829 0.527533 -0.180208 -0.0860443 -0.189978 0.414006 0.485457 -0.168697 0.452793 -0.210833 -0.194434 -0.197764 -0.206949 -0.195304 -0.198878 -0.198704 -0.202248 -0.195408 -0.195952 -0.193946 -0.193523 -0.194158 -0.194388 -0.192616 -0.195106 -0.196685 -0.193278 -0.194419 -0.194956 -0.195719 -0.194881 -0.193064 -0.193365 -0.192254 -0.195238 -0.194559 -0.194555 -0.194359 -0.192638 -0.193273 -0.196146 -0.192991 -0.193404 -0.194092 -0.193907 -0.192436 -0.192963 -0.193465 -0.193086 -0.19389
internal_weight=0 44.5313 31.2985 5.29714 26.0013 4.05889 13.2329 21.9424 2.98768 12.1809 53.2711 4.30489 18.9547 12.4927 48.9662 4.6032 44.363 6.46208 10.4629 3.93301 7.61829 3.01082 43.397 9.32611 2.73868 11.2605 1.8821 4.97225 2.17358 2.67526 2.79868 6.58744 34.0709 14.2872 3.59453 6.28821 6.87651 2.08396 7.41072 4.79255 3.88747 2.70418 1.97769 19.7836 14.4187 5.36498 3.31303 3.43591 2.45541 3.24715 3.27441 1.86834 1.60961 10.9827 6.68039 4.1048 2.53104 4.16357 1.98492 2.97664 1.51602 1.4379
internal_count=1077 361 190 49 141 35 171 106 26 164 716 43 80 52 673 54 619 28 41 40 29 32 607 122 30 153 23 59 23 36 36 92 485 197 49 94 90 25 107 65 51 34 26 288 206 82 43 46 33 44 49 27 20 160 95 56 35 63 29 42 22 20
is_linear=0
shrinkage=0.2


Tree=14
num_leaves=63
num_cat=0
split_feature=31 41 38 22 12 56 46 56 20 11 58 49 20 31 49 10 61 25 61 20 27 1 59 32 49 20 68 27 1 41 35 56 12 49 62 27 62 59 25 19 1 68 62 10 58 10 66 66 12 41 68 61 59 32 25 20 12 41 51 56 57 11
split_gain=93.062 48.1306 11.948 11.1237 4.41032 3.2166 3.07953 2.81007 10.5588 2.78842 7.62173 1.86423 1.10482 0.947472 0.616093 0.277366 0.274603 1.70558 0.0395491 0.0362306 0.0177746 0.0145444 0.0186789 0.0181755 0.014279 0.00149294 0.000377773 0.000360771 0.000351471 0.000430614 0.000258138 0.000257325 0.000234285 0.000199842 0.000183199 0.000181889 0.00017115 0.000158746 0.000127239 0.000172092 0.000144358 0.000126757 0.000123501 0.000121206 0.000234753 0.000118284 0.000117827 0.000115215 0.000123426 0.000100209 8.77864e-05 7.20166e-05 5.60945e-05 5.54783e-05 5.49425e-05 4.95744e-05 4.37482e-05 3.98745e-05 3.80047e-05 4.14186e-05 7.39004e-05 3.58912e-05
threshold=4.5000000000000009 10.500000000000002 8.5000000000000018 1.0000000180025095e-35 9.5000000000000018 5.5000000000000009 2.5000000000000004 4.5000000000000009 5.5000000000000009 3.5000000000000004 1.0000000180025095e-35 13.500000000000002 1.0000000180025095e-35 9.5000000000000018 10.500000000000002 12.500000000000002 224.50000000000003 14.500000000000002 181.00000000000003 10.500000000000002 4.5000000000000009 1.0000000180025095e-35 1.0000000180025095e-35 13.500000000000002 1.5000000000000002 2.5000000000000004 0.51666666666666672 15.500000000000002 1.5000000000000002 1.5000000000000002 9.5000000000000018 1.5000000000000002 7.5000000000000009 10.500000000000002 1.0333333333333334 7.5000000000000009 1.2020202020202022 2.5000000000000004 8.5000000000000018 1.0000000180025095e-35 6.5000000000000009 1.0972222222222225 0.91987179487179505 14.500000000000002 5.5000000000000009 15.500000000000002 1.0801282051282053 0.06458333333333334 9.5000000000000018 11.500000000000002 0.36931818181818188 133.50000000000003 8.5000000000000018 13.500000000000002 14.500000000000002 9.5000000000000018 3.5000000000000004 1.0000000180025095e-35 13.500000000000002 13.500000000000002 14.500000000000002 10.500000000000002
decision_type=2 2 2 2 2 2 2 2 2 2 2 2 2 2 2 2 2 2 2 2 2 2 2 2 2 2 2 2 2 2 2 2 2 2 2 2 2 2 2 2 2 2 2 2 2 2 2 2 2 2 2 2 2 2 2 2 2 2 2 2 2 2
left_child=2 3 7 5 6 -2 12 8 -1 10 -9 -6 -3 18 -14 -16 21 25 28 20 -17 22 23 -11 -12 -18 33 31 29 -7 36 -10 50 38 46 54 37 41 58 -40 -41 -28 -26 47 51 -39 -32 48 -37 -24 -27 -45 56 -30 61 -38 -49 -55 59 60 -23 -35
right_child=1 4 -4 -5 11 13 -8 9 27 16 24 -13 14 -15 15 19 17 -19 -20 -21 -22 26 49 -25 42 32 30 -29 53 -31 34 -33 -34 35 -36 43 55 45 39 40 -42 -43 -44 44 -46 -47 -48 52 -50 -51 -52 -53 -54 57 -56 -57 -58 -59 -60 -61 -62 -63
leaf_value=0.44297125382561103 0.23503682794089653 0.30529688940209154 0.51975562362463423 0.57445125941643183 0.35719774692027789 -0.19290183941746636 0.65237926285433412 0.297849169795528 -0.1939580572595562 -0.19827259797709137 -0.22090933728702966 0.026746438413196467 0.53334218638897768 0.030915818966612819 0.47419199074291979 0.40364451933829115 -0.20207116099745162 0.042983601812749905 -0.23470000953881673 0.38841811839424212 0.42391222568381315 -0.19218616801070759 -0.19225444382313048 -0.23054882658505052 -0.1954103438118126 -0.19385383353196145 -0.19410412560356041 -0.19192706914938384 -0.19185339783445796 -0.19887511181307141 -0.19406965086424544 -0.19846457823794827 -0.19266517974324171 -0.19450254762400909 -0.19762486408069471 -0.19329431696521404 -0.19335776274988073 -0.19172633577504083 -0.19212607783088018 -0.19314072853987671 -0.19607009978831527 -0.19707628064314764 -0.19264184575020207 -0.19545406213231481 -0.19750617811192475 -0.19486089032690626 -0.19670643165963619 -0.19478692784131019 -0.19645276733847242 -0.19481178270687433 -0.19675002959546062 -0.19296482228587231 -0.19147018076607772 -0.19419723826771446 -0.19169322864954419 -0.19126055819278059 -0.19301352236450858 -0.19252711958267668 -0.19365998979985161 -0.19185546150730357 -0.19441322646440157 -0.19245280029531386
leaf_weight=1.4308039695024479 0.81591150164603909 2.8034354113042452 1.0510261096060265 0.93660870194435197 1.2753104045987123 1.0942516103386841 2.6262832954525939 1.8112739957869042 1.2186157852411272 1.2615102641284457 1.0983332693576815 1.4700127281248567 2.467745602130889 0.78758954256773073 3.3540054857730857 3.0194739997386915 0.88608755916356852 1.4387473426759241 1.0481314584612844 2.8098014295101166 4.0555146485567093 2.2112184390425687 1.8974593766033652 1.5619963221251965 1.1033563427627089 0.7899610213935373 1.0925088822841629 1.7315172106027605 3.0750724487006664 0.86386312544345845 2.0460852533578877 0.86770956963300694 5.0908174887299538 0.65864678844809443 1.5278544165194032 0.91623173654079249 0.83293360471725442 1.0194771029055116 1.8238200470805157 1.3129508532583716 1.3803406059741972 1.2093014717102049 1.5499233938753603 0.77808971330523524 1.2242886275053022 0.9125969074666499 1.013747241348028 0.76023554429411966 1.0762190222740171 0.90533199161291111 0.89058792963624001 1.1549978479743002 0.68320075049996365 0.88917567580938373 1.5234191939234734 0.98285948112607002 2.0754740312695503 1.6021566949784753 0.77929751202464181 5.1868711858987808 0.81591098755598057 0.71009489148855209
leaf_count=10 6 19 8 4 8 16 12 14 17 15 10 13 10 9 13 11 9 14 9 11 15 34 29 11 14 11 15 27 48 10 28 10 76 9 18 13 12 16 28 19 17 14 23 10 14 12 12 10 13 12 11 17 11 12 24 16 30 24 11 81 11 11
internal_value=0 0.258733 -0.148858 -0.0851115 0.418733 -0.145817 0.449709 -0.160333 -0.0204033 -0.173449 -0.0390684 0.180254 0.420953 -0.179016 0.441596 0.424495 -0.188272 -0.156812 -0.198302 0.407632 0.415262 -0.195195 -0.204647 -0.216128 -0.201732 -0.194351 -0.193706 -0.194061 -0.193232 -0.195537 -0.194705 -0.195832 -0.193341 -0.193283 -0.195836 -0.193893 -0.193847 -0.194544 -0.19276 -0.193626 -0.194642 -0.195666 -0.193793 -0.194351 -0.195339 -0.193207 -0.194943 -0.193785 -0.195 -0.19308 -0.195389 -0.193967 -0.193097 -0.192422 -0.19252 -0.192223 -0.193489 -0.193123 -0.192325 -0.192199 -0.192786 -0.193439
internal_weight=0 34.9943 62.2937 11.1128 23.8816 10.1762 21.1363 61.2427 5.24865 55.9941 5.56289 2.74532 18.51 9.36024 15.7065 13.2388 50.4312 9.0962 8.57265 9.88479 7.07499 41.335 5.6263 2.82351 3.75161 7.65745 35.7087 3.81784 7.52452 1.95811 10.6374 2.08633 6.77137 25.0713 4.58769 11.5609 6.04968 4.23388 13.5104 4.51711 2.69329 2.30181 2.65328 8.66874 3.15738 1.93207 3.05983 5.51136 1.99245 2.80279 1.68055 1.93309 3.51891 5.5664 2.89216 1.81579 2.83571 2.49133 8.9933 8.214 3.02713 1.36874
internal_count=1077 250 827 138 112 134 91 819 64 755 61 21 79 128 60 50 694 121 119 37 26 573 67 26 47 107 506 54 110 26 143 27 98 363 58 162 85 57 201 64 36 29 37 118 41 28 40 77 26 41 22 27 51 84 44 28 40 36 137 126 45 20
is_linear=0
shrinkage=0.2


Tree=15
num_leaves=63
num_cat=0
split_feature=20 69 40 3 67 48 64 3 3 8 11 27 11 3 18 40 68 70 48 11 62 61 1 29 64 61 3 17 48 26 26 17 1 67 68 11 29 21 27 52 68 16 35 2 20 31 68 48 48 40 58 68 27 21 3 62 35 67 2 20 20 2
split_gain=85.4335 73.1177 8.01638 11.5921 6.11411 4.16455 3.3335 3.09161 3.04585 2.69586 2.69219 1.43541 0.940086 3.58046 0.917671 1.37107 0.821054 0.0889637 0.00864552 0.0209927 0.00701134 0.00605869 0.0021941 0.00183975 0.00152629 0.00266187 0.00148721 0.000964761 0.000803664 0.000537402 0.000325443 0.000310174 0.000308564 0.000575767 0.000296429 0.000270147 0.000459999 0.000298561 0.00025321 0.000156556 0.000151966 0.000140098 0.000125867 9.25029e-05 8.55787e-05 0.000127929 0.000166486 9.31957e-05 8.43531e-05 0.0001493 8.18705e-05 0.000170236 8.07186e-05 7.76841e-05 7.56939e-05 6.78076e-05 6.60109e-05 6.5266e-05 6.15954e-05 4.64222e-05 4.39167e-05 4.29115e-05
threshold=2.5000000000000004 0.16025641025641027 1.0000000180025095e-35 12.500000000000002 3.5833333333333335 5.5000000000000009 5.666666666666667 12.500000000000002 2.5000000000000004 7.5000000000000009 11.500000000000002 10.500000000000002 3.5000000000000004 15.500000000000002 5.5000000000000009 1.0000000180025095e-35 0.60769230769230786 1.8660714285714288 1.0000000180025095e-35 6.5000000000000009 1.3166666666666669 37.500000000000007 9.5000000000000018 12.500000000000002 1.1483516483516485 162.50000000000003 1.5000000000000002 10.500000000000002 8.5000000000000018 15.500000000000002 10.500000000000002 12.500000000000002 8.5000000000000018 1.3484848484848486 1.3484848484848486 12.500000000000002 1.5000000000000002 1.0000000180025095e-35 12.500000000000002 1.5000000000000002 0.39230769230769241 3.5000000000000004 13.500000000000002 13.500000000000002 12.500000000000002 3.5000000000000004 0.64583333333333337 10.500000000000002 11.500000000000002 15.500000000000002 11.500000000000002 0.06458333333333334 14.500000000000002 3.5000000000000004 14.500000000000002 0.17424242424242428 8.5000000000000018 1.1125000000000003 1.5000000000000002 14.500000000000002 9.5000000000000018 9.5000000000000018
decision_type=2 2 2 2 2 2 2 2 2 2 2 2 2 2 2 2 2 2 2 2 2 2 2 2 2 2 2 2 2 2 2 2 2 2 2 2 2 2 2 2 2 2 2 2 2 2 2 2 2 2 2 2 2 2 2 2 2 2 2 2 2 2
left_child=1 2 3 28 7 -6 8 11 -2 22 14 -3 13 20 17 -16 -7 -9 19 -14 59 -19 34 24 30 29 -24 58 -1 40 32 38 44 57 39 36 37 -33 -32 42 41 -26 50 55 -20 46 47 -46 60 -50 51 -4 -37 -38 -47 61 -52 -34 -21 -10 -45 -40
right_child=6 4 9 -5 5 16 -8 10 12 -11 -12 -13 18 -15 15 -17 -18 21 23 27 -22 -23 26 -25 25 -27 -28 -29 -30 -31 31 35 33 -35 -36 52 53 -39 43 -41 -42 -43 -44 48 45 54 -48 -49 49 -51 56 -53 -54 -55 -56 -57 -58 -59 -60 -61 -62 -63
leaf_value=-0.20282523322757962 0.13400103224347598 0.44922905212387887 -0.19353277426494522 0.54862462614155483 0.40344236775714831 0.092583712281177732 0.18289088681659843 0.37031753435526693 -0.19205377077991914 0.051943976580418598 0.23742003480506241 0.64542197542525137 -0.23025563632063997 0.28762873707830011 0.62005198873408696 0.41823552465433284 -0.19648072284849849 0.42336059041680696 -0.19222865644703993 -0.19268774171206862 -0.21581048277339487 0.41058004302996837 -0.20662580244790707 -0.2034909420691193 -0.19258879572869458 -0.20794353793284276 -0.19559901888497494 -0.20015329871426155 -0.19395841594705415 -0.19942333871379958 -0.19647726204782595 -0.20091860605648951 -0.19385089362040114 -0.19771816490559294 -0.19754399725800378 -0.19525291617152177 -0.19217173783482228 -0.19616881827769847 -0.1925322666593737 -0.19156459284740382 -0.19620175476066276 -0.19551403199643613 -0.19317804625797258 -0.19411519224956078 -0.19458418309132006 -0.19163582346566613 -0.19604032202166316 -0.19238965866222874 -0.19652063056249353 -0.19296057542879669 -0.1946016845332682 -0.19674326547798582 -0.19289776437231762 -0.19507013451846844 -0.19370156487717935 -0.19194648112156393 -0.19240899702225667 -0.19183643429051914 -0.19497668420700734 -0.19410732598035058 -0.1922940480761911 -0.19468145932364142
leaf_weight=0.77759153768420508 1.2038366571068753 2.3958328664302888 1.1278337165713259 1.6864691302180288 1.3726615607738488 0.69314600154757477 1.0302447415888298 2.332029305398466 1.1007394902408121 2.0389683097600928 3.0459537208080283 3.952543281018734 0.92911656945943732 0.78710335493087757 2.4490894079208365 2.9908603131771088 0.90781975165009499 2.7096081674098969 8.4393861144781166 1.2114795893430712 0.75156433507800091 3.2792967557907104 1.0074906647205342 0.84750384092330833 1.9151161909103387 0.7776590660214423 0.95114154368638981 1.6235986500978468 0.86231670901179314 1.062945060431957 1.0525092780590046 0.98857668042182911 1.2318154461681836 1.5084545612335203 0.88015891611576158 0.92926985025405895 0.65609006956219651 1.1395415179431436 0.73335377126931944 1.1918332688510425 1.283143315464258 0.99521200731396664 4.1176974438130856 0.88349845260381732 1.2000787332653993 2.458238143473864 1.0610403046011923 2.1805054247379303 1.0003688260912893 0.89078485220670689 1.5151311159133913 1.5948662683367727 1.5580883733928204 0.84796071797609329 0.99741347134113301 2.7657841965556145 0.8614332191646098 1.3465925045311449 0.76861397176980961 0.73390571773052204 1.3225341662764547 0.75334018468856812
leaf_count=8 15 10 16 9 5 9 11 10 17 18 19 18 8 7 11 11 11 10 129 18 8 12 9 11 29 8 12 19 12 12 13 10 17 19 10 12 10 14 11 19 16 13 59 12 16 39 13 33 12 13 20 19 23 11 14 43 13 21 10 10 20 10
internal_value=0 0.202012 -0.100914 0.180457 0.417802 0.147831 -0.173351 0.452473 -0.180418 -0.162141 0.407558 0.57138 -0.187878 -0.085868 0.445218 0.509094 -0.0713289 0.403458 -0.195144 -0.20345 -0.19954 0.416362 -0.195092 -0.194265 -0.194079 -0.197022 -0.201271 -0.196539 -0.198163 -0.195407 -0.193585 -0.194275 -0.19306 -0.194615 -0.19402 -0.195383 -0.196483 -0.198375 -0.193554 -0.193722 -0.194389 -0.193589 -0.194001 -0.193185 -0.192671 -0.193145 -0.193855 -0.193169 -0.193864 -0.194844 -0.194665 -0.195413 -0.193778 -0.193806 -0.192232 -0.192532 -0.193807 -0.192799 -0.193576 -0.192875 -0.193023 -0.193621
internal_weight=0 44.7418 18.6129 3.32638 26.1288 2.97363 52.967 23.1552 51.9368 15.2866 16.8068 6.34838 50.7329 3.37331 13.7609 5.43995 1.60097 8.32093 47.3596 4.53281 2.58621 5.9889 13.2476 42.8268 41.9793 6.03408 1.95863 3.60369 1.63991 5.25642 35.9452 15.5217 20.4235 4.08686 11.289 6.11953 3.63217 2.12812 9.40217 10.4088 4.19347 2.91033 9.21696 8.34966 16.3367 7.89728 4.44162 3.38058 4.09719 1.89115 5.09926 2.7227 2.48736 1.50405 3.45565 4.25248 2.37656 2.57841 1.98009 1.83465 2.20603 1.48669
internal_count=1077 350 224 29 126 25 727 101 716 195 73 28 701 42 54 22 20 32 659 55 35 22 177 604 593 78 21 47 20 70 515 214 301 57 156 80 45 24 134 146 58 42 127 121 244 115 62 49 57 25 68 35 35 21 53 64 33 38 28 27 32 21
is_linear=0
shrinkage=0.2


Tree=16
num_leaves=63
num_cat=0
split_feature=20 1 68 31 58 68 48 12 49 64 43 68 31 12 34 64 43 35 43 10 58 31 34 48 43 58 26 25 43 70 64 63 18 68 3 46 47 20 68 34 18 10 20 1 46 34 46 58 21 70 47 8 48 25 18 26 20 18 48 48 26 26
split_gain=116.396 60.5576 23.8238 4.18123 2.64662 2.36321 1.85871 1.44731 1.85582 1.36027 0.900568 0.629001 0.371152 1.96103 3.08363 0.162036 0.0933727 0.018874 0.0102132 0.00714726 0.0141072 0.0186796 0.00266974 0.0032424 0.00254152 0.00126189 0.00109501 0.000788743 0.000743459 0.000870261 0.000599355 0.000406475 0.000303541 0.000227172 0.000263736 0.000212157 0.0001572 0.000154004 0.000129256 0.000128548 0.000124819 0.00011231 0.000118616 0.000122766 0.000101144 9.4321e-05 9.2951e-05 8.62138e-05 8.15225e-05 8.01699e-05 9.4288e-05 6.77298e-05 6.4803e-05 5.93497e-05 5.25299e-05 5.19208e-05 7.37916e-05 5.33941e-05 5.16878e-05 4.92895e-05 4.49258e-05 3.95105e-05
threshold=1.0000000180025095e-35 5.5000000000000009 0.45804195804195807 4.5000000000000009 11.500000000000002 0.30384615384615393 12.500000000000002 1.5000000000000002 8.5000000000000018 6.7500000000000009 13.500000000000002 1.1339285714285716 6.5000000000000009 14.500000000000002 8.5000000000000018 0.43303571428571436 10.500000000000002 12.500000000000002 8.5000000000000018 15.500000000000002 11.500000000000002 1.0000000180025095e-35 1.5000000000000002 13.500000000000002 8.5000000000000018 6.5000000000000009 11.500000000000002 11.500000000000002 3.5000000000000004 0.22649572649572652 2.0714285714285716 12.500000000000002 1.5000000000000002 0.07417582417582419 14.500000000000002 1.5000000000000002 15.500000000000002 6.5000000000000009 0.24038461538461542 7.5000000000000009 5.5000000000000009 13.500000000000002 8.5000000000000018 1.0000000180025095e-35 1.0000000180025095e-35 14.500000000000002 3.5000000000000004 7.5000000000000009 6.5000000000000009 0.19375000000000003 3.5000000000000004 2.5000000000000004 7.5000000000000009 2.5000000000000004 11.500000000000002 13.500000000000002 8.5000000000000018 8.5000000000000018 11.500000000000002 1.0000000180025095e-35 13.500000000000002 3.5000000000000004
decision_type=2 2 2 2 2 2 2 2 2 2 2 2 2 2 2 2 2 2 2 2 2 2 2 2 2 2 2 2 2 2 2 2 2 2 2 2 2 2 2 2 2 2 2 2 2 2 2 2 2 2 2 2 2 2 2 2 2 2 2 2 2 2
left_child=1 2 5 24 6 26 -4 8 11 10 12 15 19 18 -15 16 -6 -18 25 27 22 -22 23 -21 31 36 54 30 33 -30 32 35 46 34 48 -3 58 38 -24 51 -33 47 -43 -44 52 59 -2 49 -29 -34 -51 -31 -42 -39 -1 57 -57 -49 -14 -35 -45 -60
right_child=9 3 4 -5 7 -7 -8 -9 -10 -11 -12 -13 13 14 -16 -17 17 -19 -20 20 21 -23 37 -25 -26 -27 -28 28 29 39 -32 40 41 45 -36 -37 -38 53 -40 -41 44 42 43 60 -46 -47 -48 55 -50 50 -52 -53 -54 -55 -56 56 -58 -59 61 -61 -62 -63
leaf_value=-0.19206567613120548 -0.19223038776329937 -0.19508605325260789 0.47663750211863243 0.17287626447558196 0.45339379371838562 0.16378926269059924 0.73134161432339873 0.58595960166856942 0.2869998345753827 0.10013050048011155 0.0043645631878295905 0.54964354759292167 -0.19174830993900308 -0.19271231945125278 0.35743581089177295 0.4722432535823064 0.42319168513758332 0.40138760836957843 -0.21822616948289256 -0.19396825164032452 -0.19725508146037585 -0.23212715833150518 -0.19307103263697506 -0.21009756301886423 -0.20445319554012237 -0.20180295659051325 -0.20230613764952576 -0.19482647552495849 -0.20088492188436 -0.19511469783349911 -0.1988410325266661 -0.1922833362311723 -0.19255093226733994 -0.19485030503752529 -0.19761339334101219 -0.1991444955929717 -0.19545303283700147 -0.19422624851057962 -0.19635709721661218 -0.19659877332044906 -0.19618599304141962 -0.19264871449044793 -0.19739760674824142 -0.1933326734834882 -0.19246186051528916 -0.19159674955016692 -0.19455339237293542 -0.19186821603683724 -0.19204750708314519 -0.1962703376491306 -0.19389368464361931 -0.19236121612946513 -0.19403431979285174 -0.1925265130174974 -0.19441057411345364 -0.19488764731991928 -0.19275209956503503 -0.19373040701788236 -0.19204955982354363 -0.19310708965410259 -0.19532277833702361 -0.19376785097834376
leaf_weight=0.71486632898450231 10.220611847937111 1.4698916077613815 2.145753629505637 1.4226832836866368 2.9189987778663689 1.0504577383399007 2.4598167985677719 2.5841602459549895 3.17834373936057 0.67758927494287391 0.98782292008399863 2.3648729324340811 2.6147612817585451 0.94246114045381524 0.71801238134503365 3.8633645027875891 2.7040325701236725 3.8475176095962524 0.76652672141790379 0.97996811941265871 1.3539748862385743 1.1249075904488561 0.75852181762456927 1.0147741809487341 1.1053082570433606 0.69574725627899159 0.83832024037837971 1.2033488340675811 1.7235126718878744 0.77260212600231193 0.7678421288728704 2.5013410113751888 0.92748412862419938 0.99442206695675883 1.2466123327612877 0.7932915836572646 0.75536635518074025 1.1543390750885008 1.2983910664916036 1.2768298387527464 0.90938331186771471 0.80860237404704038 0.85190870612859759 0.77255261689424504 0.99963127821683873 1.1940490938723085 0.7387949042022236 2.175092071294785 0.65051341801881801 0.99571081995964084 2.0269247256219387 0.66481854021549225 1.4568321928381918 2.8515516668558121 0.82101501524448395 1.0741375461220743 1.6283942498266695 0.85917354747652996 0.90851885452866588 1.8667449280619619 1.0994912572205064 1.302940174937248
leaf_count=11 156 19 12 13 11 10 13 12 17 9 12 10 41 14 8 15 10 14 7 14 17 7 11 9 11 7 9 16 19 10 9 38 14 13 14 9 10 16 16 15 11 12 10 11 15 19 10 34 10 12 28 10 20 43 11 14 24 12 14 27 14 18
internal_value=0 0.262288 0.40995 -0.14629 0.475106 -0.085982 0.612674 0.445584 0.426368 -0.181567 -0.184929 0.454584 -0.188282 -0.150342 0.0451796 0.437724 0.423642 0.410387 -0.196433 -0.195297 -0.199886 -0.21308 -0.195827 -0.202174 -0.195455 -0.193771 -0.196492 -0.193973 -0.195336 -0.19737 -0.19334 -0.194232 -0.193165 -0.194075 -0.195364 -0.196509 -0.19277 -0.193739 -0.195145 -0.195138 -0.193353 -0.19381 -0.194776 -0.195407 -0.194149 -0.19309 -0.192387 -0.193458 -0.193851 -0.194177 -0.194677 -0.193841 -0.194861 -0.193016 -0.193319 -0.192963 -0.193601 -0.192396 -0.19235 -0.193713 -0.194502 -0.193062
internal_weight=0 40.1499 29.4915 10.6584 26.0669 3.42466 4.60557 21.4613 18.8771 57.4463 56.7688 15.6988 55.7809 8.70433 1.66047 13.3339 9.47055 6.55155 7.04386 47.0766 10.5364 2.47888 8.05755 1.99474 9.23568 6.27733 2.3742 36.5402 11.5935 4.43776 24.9467 8.13037 24.1789 7.15569 3.10047 2.26318 5.58159 6.0628 2.05691 2.71425 5.86719 13.2195 3.53255 2.72395 3.36585 4.05522 10.9594 9.68692 1.85386 3.95012 3.02264 1.43742 2.36622 4.00589 1.53588 5.7368 2.70253 3.03427 4.82622 2.86117 1.87204 2.21146
internal_count=1077 291 155 136 114 41 25 89 77 786 777 60 765 119 22 50 35 24 97 646 133 24 109 23 123 90 31 513 153 54 360 112 351 99 40 28 83 86 27 35 84 185 47 35 46 59 166 138 26 54 40 20 31 59 22 84 38 46 73 40 25 32
is_linear=0
shrinkage=0.2


Tree=17
num_leaves=63
num_cat=0
split_feature=51 18 25 63 49 69 6 19 32 29 19 67 17 49 63 71 67 19 40 71 32 71 64 46 9 48 33 25 35 3 49 24 33 63 16 25 16 35 17 25 51 19 12 20 32 55 17 29 32 32 20 35 67 9 17 49 71 32 32 17 40 25
split_gain=56.0951 48.7032 25.9329 14.4076 11.5664 10.9081 7.46875 4.08587 3.5405 3.95067 2.55053 2.2521 1.12485 1.08654 0.668619 0.338676 0.161557 0.0898278 0.0153552 0.0098351 0.0053444 0.0102373 0.00377685 0.000711617 0.000713137 0.000291783 0.000406045 0.000549946 0.000178663 0.000181323 0.000151534 0.00014688 0.000131207 0.000129418 0.000128423 0.000175447 0.000126122 0.000119853 0.00011879 0.000115547 0.000116871 0.000110838 0.000109989 9.13905e-05 0.00015022 9.77367e-05 8.46782e-05 8.41904e-05 0.000104739 0.00011969 0.000148069 0.000107005 9.36178e-05 6.64539e-05 6.25794e-05 5.88619e-05 5.3078e-05 5.37077e-05 5.45576e-05 5.10656e-05 5.35598e-05 4.8498e-05
threshold=1.0000000180025095e-35 6.5000000000000009 12.500000000000002 118.50000000000001 1.5000000000000002 3.8750000000000004 2.5000000000000004 1.0000000180025095e-35 1.5000000000000002 4.5000000000000009 12.500000000000002 0.88750000000000007 10.500000000000002 4.5000000000000009 193.50000000000003 0.73594716179088526 5.166666666666667 5.5000000000000009 14.500000000000002 0.56637357407116584 2.5000000000000004 -0.40981018961226662 5.166666666666667 2.5000000000000004 1.5000000000000002 3.5000000000000004 11.500000000000002 14.500000000000002 12.500000000000002 2.5000000000000004 9.5000000000000018 3.5000000000000004 2.5000000000000004 187.00000000000003 3.5000000000000004 9.5000000000000018 8.5000000000000018 14.500000000000002 10.500000000000002 1.0000000180025095e-35 6.5000000000000009 1.5000000000000002 4.5000000000000009 3.5000000000000004 12.500000000000002 2.5000000000000004 14.500000000000002 2.5000000000000004 1.0000000180025095e-35 10.500000000000002 10.500000000000002 4.5000000000000009 1.5857142857142861 15.500000000000002 12.500000000000002 9.5000000000000018 -0.57245488221236096 1.0000000180025095e-35 12.500000000000002 12.500000000000002 10.500000000000002 3.5000000000000004
decision_type=2 2 2 2 2 2 2 2 2 2 2 2 2 2 2 2 2 2 2 2 2 2 2 2 2 2 2 2 2 2 2 2 2 2 2 2 2 2 2 2 2 2 2 2 2 2 2 2 2 2 2 2 2 2 2 2 2 2 2 2 2 2
left_child=1 2 3 10 -3 13 12 -7 9 -5 19 -10 -4 -6 -13 16 17 -16 -19 -1 21 -15 28 25 -25 26 38 -28 29 59 34 39 42 53 56 -36 47 -37 -22 -32 -41 -14 -31 44 45 -27 -43 48 54 50 52 -52 -50 -23 -34 -51 -30 -58 -59 60 -2 -45
right_child=22 4 6 8 5 7 -8 -9 11 -11 -12 14 41 20 15 -17 -18 18 -20 -21 23 33 -24 24 -26 43 27 -29 30 32 31 -33 36 -35 35 37 -38 -39 -40 40 -42 46 -44 61 -46 -47 -48 -49 49 55 51 -53 -54 -55 -56 -57 57 58 -60 -61 -62 -63
leaf_value=-0.1928294871588199 -0.19410134115967087 0.46312578446051189 0.074910427121288134 -0.0614378259021095 0.055370790770574232 0.38185277954816688 0.40943595209228056 -0.064859012438656383 0.57527804853305331 0.4313535603127126 0.20930209297778421 0.32036050613887573 -0.19188793441980179 -0.21584840164676533 0.36247070540480569 0.48260279741629059 0.45050527534238577 0.39942209148141483 0.41973805762902833 -0.22220449855123348 -0.19203475319951921 -0.19456314412071107 -0.20661035335529385 -0.20087218556153102 -0.19390763366877936 -0.19677168308945714 -0.19351989350068602 -0.20075201491731845 -0.19414568080688846 -0.19395436015705886 -0.19351544339268126 -0.19302421768814593 -0.19186048056265831 -0.19279151411121789 -0.19227824680510613 -0.19719004269702264 -0.19155729812070288 -0.19386863651207603 -0.19531759599079238 -0.19721614169100746 -0.19417839542474036 -0.19536569535027556 -0.19174878607333834 -0.19420586163945885 -0.19263996148977366 -0.19367881379737273 -0.1925663856638801 -0.19496318913243524 -0.19407697792309511 -0.19236918690930691 -0.19095050898502416 -0.19414504659618104 -0.19664268452416853 -0.19713903545840827 -0.19402761149972617 -0.19411904587666334 -0.1915330504385781 -0.19432888845786717 -0.19248559270017759 -0.19332023262411493 -0.19629372459792582 -0.19237586095294038
leaf_weight=1.02376747876406 0.9548465572297602 1.3946738168597246 0.71678653359413047 1.2601214386522799 0.71368543058634415 2.02290466427803 1.0945605933666227 1.3761843256652353 3.9999673217535046 1.3456257581710813 0.87102608010172833 2.8551461361348656 3.3924874477088451 1.457997150719166 2.3508613817393762 3.2956793755292884 2.8851846009492865 3.3006604015827179 2.7099104076623917 0.82195372879505146 1.2303787246346467 0.82869645208120635 0.86963577568530936 1.2036534473299974 1.1499471664428709 0.84848428145050825 0.7721033953130243 0.92378233373165131 1.0141204334795464 1.0602106563746954 0.82427508383989279 1.2907460294663904 2.8727944046258922 0.8811962641775607 0.91691076010465655 0.96340281516313531 1.8234329819679249 0.79169652611017227 0.68712691590189923 1.6203699186444285 0.73702599108219136 0.79885552078485467 6.1543511338531971 0.65494504570960987 1.8157099485397339 0.78847745805978775 0.94187441095709801 1.155577853322028 1.098934151232241 3.092363502830267 0.65933064371347416 1.1526505127549169 1.1793373860418794 0.77551869675517082 0.65440472587943066 1.0234093964099882 1.436476096510886 0.89609947800636325 2.2675587609410286 0.96548041328787793 0.83594408631324768 5.0134552605450153
leaf_count=15 13 8 8 15 7 9 4 16 19 5 7 14 53 14 10 13 11 12 10 7 19 11 9 13 16 10 11 10 14 15 12 19 45 13 14 11 29 11 9 19 10 10 97 9 27 11 14 15 15 47 11 16 14 9 9 14 23 12 34 14 10 76
internal_value=0 0.118058 0.274256 0.363746 -0.0962274 -0.129934 -0.0700652 0.200993 0.413155 0.193043 -0.0727881 0.439959 -0.159782 -0.186903 0.408847 0.42622 0.409698 0.395617 0.408582 -0.205911 -0.195988 -0.202544 -0.19358 -0.194274 -0.197469 -0.193684 -0.195205 -0.197459 -0.193278 -0.192964 -0.193886 -0.194824 -0.192772 -0.194739 -0.193379 -0.19452 -0.193114 -0.195692 -0.193211 -0.195554 -0.196266 -0.192554 -0.192073 -0.193081 -0.193893 -0.195282 -0.193851 -0.193334 -0.193174 -0.193566 -0.194332 -0.192983 -0.195405 -0.195808 -0.192263 -0.192804 -0.192836 -0.192547 -0.193008 -0.194493 -0.195125 -0.192587
internal_weight=0 58.2034 33.6645 26.7199 24.5389 23.1442 6.94456 3.39909 24.0032 2.60575 2.71675 21.3974 5.85 19.7452 17.3974 14.5423 11.2466 8.36143 6.01057 1.84572 19.0315 3.94341 38.3114 15.0881 2.3536 12.7345 3.61339 1.69589 37.4418 24.6831 12.7587 4.47242 21.9268 2.48541 8.28626 2.67201 14.7122 1.7551 1.91751 3.18167 2.3574 5.13322 7.21456 9.12107 3.45267 1.63696 1.74073 12.8888 11.7332 8.20603 4.09025 1.81198 2.27827 1.60422 3.5272 4.11577 5.61425 4.60013 3.16366 2.75627 1.79079 5.6684
internal_count=1077 525 227 138 298 290 89 25 109 20 29 89 85 265 70 56 43 32 22 22 258 47 552 211 29 182 49 21 543 364 179 60 327 33 119 36 215 22 28 41 29 77 112 133 48 21 24 186 171 117 56 27 29 20 54 61 83 69 46 37 23 85
is_linear=0
shrinkage=0.2


Tree=18
num_leaves=63
num_cat=0
split_feature=36 20 33 40 47 51 26 2 10 69 36 11 71 40 20 71 71 25 68 1 70 11 26 11 71 34 26 11 20 68 27 69 69 71 70 42 26 1 27 26 47 58 26 11 27 51 26 27 11 21 69 34 69 66 21 42 10 20 11 58 36 68
split_gain=43.1442 37.9049 31.0371 22.5098 18.6138 15.6537 11.2033 4.07391 3.88491 3.12736 14.7108 2.96313 2.6189 2.72081 3.42729 2.6169 1.31959 1.14093 1.01359 2.61462 1.37953 0.553412 0.00625935 0.00380253 0.00308146 0.00269915 0.00187615 0.000867583 0.000728568 0.000613226 0.000607063 0.00128954 0.000450961 0.000325788 0.000235772 0.000191734 0.000188127 0.000163865 0.00013017 0.000108774 0.000120672 0.000106546 0.000141939 9.89489e-05 0.00013366 9.8366e-05 9.81817e-05 9.63053e-05 0.000160163 9.40312e-05 9.31285e-05 9.27653e-05 8.3463e-05 6.18858e-05 8.5102e-05 0.000126638 5.55882e-05 5.02692e-05 4.96022e-05 4.86573e-05 4.51377e-05 4.47318e-05
threshold=1.0000000180025095e-35 5.5000000000000009 5.5000000000000009 15.500000000000002 2.5000000000000004 2.5000000000000004 5.5000000000000009 9.5000000000000018 6.5000000000000009 4.166666666666667 2.5000000000000004 13.500000000000002 -0.83271942166564372 1.5000000000000002 9.5000000000000018 0.39930451011319795 0.94139008594734552 8.5000000000000018 1.9375000000000002 5.5000000000000009 5.2500000000000009 9.5000000000000018 13.500000000000002 1.0000000180025095e-35 0.95285364959085384 12.500000000000002 12.500000000000002 12.500000000000002 9.5000000000000018 0.55050505050505061 7.5000000000000009 1.9375000000000002 4.8333333333333348 -0.54357678249369723 0.63961038961038974 11.500000000000002 11.500000000000002 1.0000000180025095e-35 13.500000000000002 1.0000000180025095e-35 7.5000000000000009 6.5000000000000009 11.500000000000002 10.500000000000002 9.5000000000000018 8.5000000000000018 4.5000000000000009 12.500000000000002 14.500000000000002 2.5000000000000004 0.96153846153846168 12.500000000000002 1.4494949494949496 0.11805555555555557 2.5000000000000004 6.5000000000000009 12.500000000000002 3.5000000000000004 11.500000000000002 13.500000000000002 7.5000000000000009 0.86190476190476206
decision_type=2 2 2 2 2 2 2 2 2 2 2 2 2 2 2 2 2 2 2 2 2 2 2 2 2 2 2 2 2 2 2 2 2 2 2 2 2 2 2 2 2 2 2 2 2 2 2 2 2 2 2 2 2 2 2 2 2 2 2 2 2 2
left_child=1 8 32 4 5 22 15 -8 -1 16 -11 -5 -9 -14 -15 -6 29 -16 20 -20 23 -19 -4 -10 34 -13 46 -24 -27 39 35 37 33 -3 36 61 43 -32 -36 -2 53 42 51 44 -25 -37 60 48 -38 52 59 57 -35 -41 55 -55 -40 -42 -21 -39 -12 -31
right_child=9 2 3 11 6 -7 7 12 18 10 26 25 13 14 17 -17 -18 21 19 58 -22 -23 27 24 -26 28 -28 -29 -30 30 31 -33 -34 49 38 45 47 50 56 40 41 -43 -44 -45 -46 -47 -48 -49 -50 -51 -52 -53 -54 54 -56 -57 -58 -59 -60 -61 -62 -63
leaf_value=0.29658297270102313 -0.19124905382303409 -0.1964443369613193 -0.21378028822043521 0.12868880673849237 -0.20654003481577621 0.57520413301598472 0.66280956287115456 0.17025196832872003 -0.20866266932461275 0.56472105380822391 -0.19276511854900236 -0.21218375327155614 0.24255487301948483 0.69289906515230915 0.52506265146673281 0.26336924326426681 0.08039041466308372 0.44416867218461614 0.23688229054108245 -0.19383699196036733 0.098535554803669281 0.33160216545652055 -0.20204301974973188 -0.19275359407877091 -0.20735558686424743 -0.19450117892017627 -0.20330822462407894 -0.19358848776329504 -0.20145705108087386 -0.1929453349967892 -0.19273539354769048 -0.20304911154511998 -0.19870464086728112 -0.19122497593395635 -0.19150086245643871 -0.19567196708241821 -0.19475892623844171 -0.19518292562435852 -0.1927177025366969 -0.19184045026756219 -0.19386418224803861 -0.19217583478083639 -0.19566825639816304 -0.19174165991413863 -0.19612187513608528 -0.19260344362215917 -0.19406431814296354 -0.19365200628114276 -0.19820443727722512 -0.19438239250951272 -0.19377609094665765 -0.19517576210764515 -0.19355934191837071 -0.19461169167202802 -0.19420874122973356 -0.19169290074337061 -0.19497539572371453 -0.19192011635185241 -0.19160735828204103 -0.19730088517466565 -0.19115509393871669 -0.19144046472090026
leaf_weight=0.78613179922104137 2.6329647898674109 1.4591720998287199 1.6185716912150412 1.594937540590762 1.1743770465254808 1.438688028603792 4.029844984412196 1.3322554118931389 0.77767936885356626 1.3048199377953995 1.2068602889776237 0.79860919713974032 1.9836654625832988 2.754668600857257 4.3524820953607541 0.7949189320206641 0.72229864448308845 4.0011234879493713 0.87480276077985708 0.72877052426338174 0.67358262091875154 3.1009350717067719 0.82401822507381473 1.2828977517783613 0.67561468109488565 0.95689406618475947 0.75943647325038899 1.1818158924579618 1.6254873685538767 1.2252391502261146 1.4239530302584169 0.84520164877176274 0.92782095819711674 1.4375374838709829 2.8151464574038982 1.1203327700495718 1.5805371850728995 0.85494687780737899 1.0175816901028154 6.6853311173617858 0.79493256285786618 2.2061391770839691 1.263341352343559 1.2738895453512666 0.74484656378626812 0.66645789146423329 1.0940329320728777 1.0675213709473608 0.81944062933325756 1.1845513433218 0.92829306051135052 0.70243124291300763 1.0676856637001035 0.74770234897732768 1.2392091788351534 2.9036111012101173 0.76355708017945279 1.6087337173521516 0.88230731338262558 0.88097725063562393 1.6471462808549402 2.2246583811938763
leaf_count=7 43 18 13 12 13 9 19 8 9 15 18 6 12 14 18 7 9 17 9 10 9 13 8 19 7 14 7 17 17 18 21 8 11 24 45 14 21 11 15 105 11 34 16 20 9 10 15 15 9 16 13 9 15 10 17 46 10 25 14 10 27 36
internal_value=0 0.114642 0.221264 0.296566 0.3649 0.0170345 0.43977 0.481488 -0.137471 -0.161738 -0.0294986 -0.0960191 0.439794 0.461971 0.492602 -0.0168581 -0.186837 0.444433 -0.158827 -0.0414718 -0.180449 0.395019 -0.204528 -0.195108 -0.194233 -0.202022 -0.194205 -0.197062 -0.19888 -0.193073 -0.194346 -0.195938 -0.194646 -0.193915 -0.193453 -0.192846 -0.194204 -0.194467 -0.192347 -0.19245 -0.192625 -0.193309 -0.193881 -0.193123 -0.193991 -0.194527 -0.192453 -0.195232 -0.195935 -0.192914 -0.195393 -0.193154 -0.19222 -0.192236 -0.192777 -0.192291 -0.193686 -0.192563 -0.192616 -0.196258 -0.191836 -0.191975
internal_weight=0 56.4044 39.6401 33.5633 28.5874 5.06309 23.5243 21.555 16.7643 37.6891 6.0123 4.97593 17.5251 16.1929 14.2092 1.9693 31.6768 11.4545 15.9782 2.48588 13.4923 7.10206 3.62441 12.8187 12.041 3.38099 4.70748 2.00583 2.58238 30.9545 10.1701 4.93337 6.07677 5.14895 11.3654 5.23669 6.76913 4.08817 4.59629 20.7844 18.1514 6.57558 4.36944 3.30163 2.02774 1.78679 3.94804 3.4675 2.39998 3.68977 2.66422 3.1061 2.50522 11.5759 4.89052 3.65131 1.78114 2.40367 1.61108 1.73592 2.85401 3.4499
internal_count=1077 529 301 217 168 47 121 101 228 548 82 49 82 74 62 20 466 48 221 33 188 30 38 179 170 37 67 25 31 457 141 63 84 73 163 78 93 55 70 316 273 95 61 48 28 24 60 45 30 55 34 45 39 178 73 56 25 36 24 21 45 54
is_linear=0
shrinkage=0.2


Tree=19
num_leaves=63
num_cat=0
split_feature=28 41 41 26 28 58 61 50 57 16 29 16 3 29 26 61 4 19 28 67 21 56 48 57 50 21 58 31 34 28 66 21 66 32 57 48 26 67 61 32 57 4 50 12 12 28 21 28 26 71 4 67 57 61 61 26 4 34 9 67 67 21
split_gain=65.5167 32.9844 13.9801 17.1968 17.1855 11.0909 6.9444 6.31348 6.29283 15.0993 6.25096 6.08151 5.1428 2.75789 3.8151 2.27765 2.23419 1.40482 2.56366 1.284 1.15612 3.32527 0.520892 1.41273 3.14718 0.344829 0.294411 0.00725296 0.00717037 0.00582997 0.00176417 0.0016811 0.00314885 0.00100098 0.000955463 0.000866004 0.000989482 0.000837474 0.00083122 0.000571861 0.000567179 0.000457257 0.000410195 0.000377845 0.000191564 0.00025912 0.000160245 0.000156152 0.000141747 0.000117911 0.000204539 0.000116785 0.000114085 0.000102669 0.000107706 9.96743e-05 0.0001138 7.70034e-05 7.39347e-05 7.21655e-05 7.0401e-05 6.93976e-05
threshold=14.500000000000002 9.5000000000000018 1.0000000180025095e-35 10.500000000000002 5.5000000000000009 2.5000000000000004 97.000000000000014 13.500000000000002 2.5000000000000004 5.5000000000000009 4.5000000000000009 2.5000000000000004 14.500000000000002 5.5000000000000009 9.5000000000000018 158.00000000000003 2.5000000000000004 9.5000000000000018 7.5000000000000009 5.166666666666667 7.5000000000000009 14.500000000000002 6.5000000000000009 15.500000000000002 12.500000000000002 1.5000000000000002 10.500000000000002 2.5000000000000004 6.5000000000000009 5.5000000000000009 1.1055555555555558 4.5000000000000009 0.54195804195804198 1.5000000000000002 9.5000000000000018 10.500000000000002 1.0000000180025095e-35 2.3095238095238098 155.00000000000003 15.500000000000002 8.5000000000000018 11.500000000000002 14.500000000000002 14.500000000000002 12.500000000000002 6.5000000000000009 6.5000000000000009 1.5000000000000002 9.5000000000000018 0.45964650748760599 9.5000000000000018 1.2863636363636366 14.500000000000002 133.50000000000003 46.500000000000007 10.500000000000002 3.5000000000000004 13.500000000000002 14.500000000000002 3.8750000000000004 1.3166666666666669 1.0000000180025095e-35
decision_type=2 2 2 2 2 2 2 2 2 2 2 2 2 2 2 2 2 2 2 2 2 2 2 2 2 2 2 2 2 2 2 2 2 2 2 2 2 2 2 2 2 2 2 2 2 2 2 2 2 2 2 2 2 2 2 2 2 2 2 2 2 2
left_child=2 5 3 17 37 12 13 16 9 19 -9 33 -2 14 -7 -8 -6 27 -19 51 22 41 23 30 -25 26 -16 28 -1 -26 34 35 -33 -3 38 36 -24 -5 -10 61 -38 -22 49 47 -42 58 -35 53 -36 55 59 -4 -50 54 -44 -37 -57 -49 -46 -51 -14 -29
right_child=1 11 8 4 7 6 15 10 20 -11 -12 -13 60 -15 25 -17 -18 18 -20 -21 21 -23 31 24 29 -27 -28 39 -30 -31 -32 32 -34 46 48 42 40 -39 -40 -41 44 -43 43 -45 45 -47 -48 57 52 50 -52 -53 -54 -55 -56 56 -58 -59 -60 -61 -62 -63
leaf_value=-0.2192263406447002 0.40123065407358127 -0.20000481961035976 -0.19442441102741315 -0.19329748491283977 0.70307931493425635 0.14283450635165673 0.88051712881264721 -0.085308784815579963 -0.19505107850399431 0.58965664640580207 0.50500303629133358 0.19223884553721812 -0.19475996947734392 0.5951062628679582 0.33774651083684004 0.54905263462155707 0.40862829878807577 -0.19459500172614175 0.26629143452664178 0.11256762827563921 -0.19264372420716092 0.31009425176429706 -0.20145327767886465 0.16836817734780965 -0.1932993534801862 0.47596106328931209 0.43481856063005059 -0.19375096133616365 -0.19466470350783643 -0.21433920471578816 -0.20504489204670628 -0.19280087399609827 -0.21015270896476579 -0.19265354256036799 -0.1918128379615168 -0.19236576710045752 -0.19943871515277031 -0.20075860736957096 -0.20402814656905741 -0.19717165935689407 -0.19371858687160559 -0.19931794964706931 -0.19477063160764754 -0.1995580109601616 -0.19317088304187313 -0.19848144518961516 -0.19527752429212789 -0.19173855365144543 -0.19354917385454368 -0.19293730334191636 -0.19661024484526218 -0.19212824546190949 -0.19626408120686906 -0.19397074290597138 -0.19794129609673222 -0.19442277928898985 -0.19261240318003708 -0.19429227644041813 -0.19581653956813583 -0.19521349723645604 -0.19211775368689535 -0.19153087005780736
leaf_weight=1.0317929238080994 0.90893452614546455 1.260517545044421 1.9361128844320767 1.7412985339760765 2.1200773119926453 2.4483317881822613 1.8074674867093556 1.6257086209952833 0.92339691147208014 1.5155719742178915 1.2844515666365621 2.3227543048560619 0.8339335098862648 2.5133342742919913 2.1748165190219861 1.5321419835090635 2.0060751736164093 1.1783337518572805 0.81782047450542439 0.64838532358407963 1.0078498348593705 0.75029143691062916 1.2193695828318647 1.5940407998859885 1.2424185536801817 3.3663212060928345 2.938170313835144 0.70745108276605639 0.88170088827610005 0.91458559036254872 0.7745213359594344 0.88374510034918674 0.79434749111533165 2.6871607378125191 1.4013212732970712 5.7275069206953066 1.1421691328287122 0.91953178495168675 0.74581223353743553 1.1255143731832502 3.9123904518783092 0.692879058420658 0.75891932472586565 0.72618159651756276 0.90143531560897849 0.99087329953908909 1.4244183972477911 0.76358526200056109 2.5610798075795178 2.672293402254581 1.0480721667408941 1.633578050881624 0.81651602685451496 0.94320884346961964 0.98444359749555588 2.8951336182653904 2.669512327760458 1.2381355240941045 0.79526488110423088 0.70390629023313511 0.78125828877091408 2.7621065527200699
leaf_count=9 6 15 26 25 14 14 12 19 12 16 6 19 11 11 10 9 9 16 8 9 15 8 13 17 18 13 11 10 12 8 8 13 7 40 22 87 13 10 8 14 55 8 10 8 13 11 19 12 36 39 13 25 10 13 11 39 40 17 10 9 12 44
internal_value=0 0.271976 -0.0954096 0.0550342 0.23709 0.41154 0.470334 0.400819 -0.149178 0.0482015 0.175236 -0.0781606 0.0206733 0.406202 0.362755 0.728448 0.559922 -0.152547 -0.00577073 -0.146346 -0.174218 -0.0406354 -0.181878 -0.144312 -0.0447354 0.426255 0.393529 -0.197563 -0.207909 -0.20222 -0.196026 -0.194854 -0.201015 -0.195074 -0.194943 -0.19451 -0.196158 -0.195876 -0.199062 -0.193254 -0.195324 -0.195363 -0.193812 -0.195313 -0.194612 -0.195912 -0.193563 -0.194655 -0.193504 -0.193294 -0.19417 -0.193374 -0.194205 -0.195652 -0.196561 -0.192951 -0.193554 -0.193318 -0.194411 -0.193412 -0.193482 -0.191984
internal_weight=0 26.9996 69.1307 18.2019 9.69714 19.3047 16.7806 7.03631 50.9289 5.73365 2.91016 7.69485 2.52413 13.441 10.9276 3.33961 4.12615 8.50472 1.99615 4.21808 45.1952 2.45102 42.7442 10.9737 3.75104 8.47931 5.11299 6.50857 1.91349 2.157 7.22265 31.7705 1.67809 5.3721 6.44813 30.0924 8.9615 2.66083 1.66921 4.59507 7.74213 1.70073 21.1309 5.41447 6.59996 2.68757 4.11158 4.68829 4.77892 15.7164 4.42427 3.56969 3.3776 2.68657 1.74336 11.2922 5.56465 2.00172 1.6967 3.3762 1.61519 3.46956
internal_count=1077 202 875 196 83 109 80 48 679 76 25 93 29 59 48 21 23 113 24 60 603 31 572 139 43 34 21 89 21 26 96 433 20 74 88 413 115 35 20 68 102 23 298 71 89 34 59 63 68 227 61 51 46 34 21 166 79 29 23 48 23 54
is_linear=0
shrinkage=0.2


Tree=20
num_leaves=63
num_cat=0
split_feature=34 31 64 26 4 33 67 26 31 4 26 31 42 71 64 38 71 50 28 31 31 62 11 4 26 33 67 34 48 34 34 10 48 26 34 10 25 4 63 67 35 3 71 3 26 26 63 21 4 48 71 9 48 36 50 4 62 59 11 71 38 50
split_gain=97.3858 14.4356 2.38159 4.99127 1.16367 1.38436 0.61987 0.60788 0.267477 0.491598 0.0213729 0.00756862 0.00477993 0.00074262 0.000287526 0.000644225 0.00030501 0.000218131 0.000390858 0.000398862 0.000141492 0.000141398 0.000130976 0.000183288 0.000129846 0.000167532 0.0001315 0.000133101 0.000124091 0.000122162 0.000117514 0.000116536 0.000108688 0.00018016 8.0842e-05 9.58544e-05 7.8932e-05 7.57721e-05 0.000139841 8.14325e-05 7.75736e-05 0.000100531 7.52393e-05 6.59235e-05 9.45569e-05 5.83276e-05 5.80463e-05 5.66539e-05 5.61484e-05 5.11981e-05 4.88925e-05 6.24264e-05 5.00285e-05 6.18641e-05 4.33639e-05 6.52043e-05 3.81976e-05 3.36018e-05 3.24458e-05 2.53461e-05 2.22218e-05 2.17963e-05
threshold=1.0000000180025095e-35 1.0000000180025095e-35 4.166666666666667 9.5000000000000018 9.5000000000000018 3.5000000000000004 1.1909090909090911 6.5000000000000009 4.5000000000000009 2.5000000000000004 2.5000000000000004 4.5000000000000009 11.500000000000002 0.16073709818943308 1.2403846153846156 10.500000000000002 0.90104602675851198 10.500000000000002 12.500000000000002 3.5000000000000004 6.5000000000000009 0.96875000000000011 14.500000000000002 8.5000000000000018 7.5000000000000009 9.5000000000000018 2.6333333333333337 14.500000000000002 12.500000000000002 8.5000000000000018 7.5000000000000009 15.500000000000002 10.500000000000002 11.500000000000002 10.500000000000002 12.500000000000002 6.5000000000000009 1.5000000000000002 106.50000000000001 2.0714285714285716 14.500000000000002 9.5000000000000018 0.64606570087802229 14.500000000000002 7.5000000000000009 15.500000000000002 62.000000000000007 8.5000000000000018 9.5000000000000018 2.5000000000000004 0.072725463204450405 4.5000000000000009 10.500000000000002 2.5000000000000004 1.0000000180025095e-35 2.5000000000000004 1.6125000000000003 3.5000000000000004 13.500000000000002 0.1280413675306922 1.0000000180025095e-35 8.5000000000000018
decision_type=2 2 2 2 2 2 2 2 2 2 2 2 2 2 2 2 2 2 2 2 2 2 2 2 2 2 2 2 2 2 2 2 2 2 2 2 2 2 2 2 2 2 2 2 2 2 2 2 2 2 2 2 2 2 2 2 2 2 2 2 2 2
left_child=1 7 14 -4 5 6 -3 -1 9 -8 12 -5 13 -10 17 16 22 24 20 32 30 -9 36 31 49 26 27 29 -22 -26 -19 -24 33 -20 35 -27 42 38 -32 57 41 -40 -16 59 -45 -38 -36 54 -46 -2 61 -52 53 -53 55 -48 -23 58 -39 -41 -57 -51
right_child=2 4 3 11 -6 -7 8 21 10 -11 -12 -13 -14 -15 15 -17 -18 18 19 -21 28 56 23 -25 25 34 -28 -29 -30 -31 37 -33 -34 -35 46 -37 45 39 40 43 -42 -43 -44 44 48 -47 47 -49 -50 50 51 52 -54 -55 -56 60 -58 -59 -60 -61 -62 -63
leaf_value=0.042793656309045081 -0.1908896636765969 0.20429477708552768 0.37732651432061398 -0.19125929177281889 0.18461649246605741 0.43887475497943784 0.4181272734942626 -0.19309445135415751 0.29576576317632569 0.29831803766654924 0.3204335652193101 -0.21891844985164519 0.30638338852704372 0.3000005453830622 -0.1922162770814827 -0.19736218838603325 -0.19554004278699422 -0.19274739601064558 -0.19239108697164151 -0.1966169811507737 -0.19039180465219774 -0.19080379775632894 -0.18904192239803264 -0.1949342810684313 -0.18938554749575565 -0.19300390930821082 -0.19344411915246595 -0.18836948451548738 -0.19419870342416293 -0.19281796530412199 -0.18918391979314461 -0.19272878355493353 -0.19345726874621091 -0.18844642881866286 -0.19141172242061513 -0.18968919789670458 -0.1892835327452472 -0.18855988314806216 -0.19422270113554208 -0.18975985187987898 -0.18959522625559397 -0.19103351662426959 -0.18925963480247218 -0.18864934847433604 -0.19047732087014477 -0.19100288481225403 -0.19070200207499927 -0.19139223850450793 -0.19285395452007165 -0.18841806687454055 -0.19160655057896381 -0.18895030196153603 -0.18878871738808067 -0.1919135088358794 -0.1885537915084457 -0.18845906092835818 -0.18890220012857883 -0.18748230818064765 -0.18996681908158036 -0.18774280512705543 -0.18997617446831067 -0.18961250210012787
